<?xml version="1.0"?>
<opencv_storage>
<my_svm type_id="opencv-ml-svm">
  <svm_type>C_SVC</svm_type>
  <kernel><type>RBF</type>
    <gamma>8.9999999999999997e-002</gamma></kernel>
  <C>10.</C>
  <term_criteria><epsilon>1.1920928955078125e-007</epsilon>
    <iterations>2147483647</iterations></term_criteria>
  <var_all>324</var_all>
  <var_count>324</var_count>
  <class_count>9</class_count>
  <class_labels type_id="opencv-matrix">
    <rows>1</rows>
    <cols>9</cols>
    <dt>i</dt>
    <data>
      1 2 3 4 5 6 7 8 9</data></class_labels>
  <sv_total>27</sv_total>
  <support_vectors>
    <_>
      0. 0. 0. 0. 0. 0. 0. 0. 0. 0. 0. 0. 0. 0. 0. 0. 0. 0. 0. 0. 0. 0.
      0. 0. 0. 0. 0. 0. 0. 0. 0. 0. 0. 0. 0. 0. 0. 0. 0. 0. 0. 0. 0. 0.
      0. 0. 0. 0. 0. 0. 0. 0. 0. 0. 0. 0. 0. 0. 0. 0. 0. 0. 0. 0. 0. 0.
      0. 0. 0. 0. 0. 0. 0. 0. 0. 0. 0. 0. 0. 0. 0. 0. 0. 0. 0. 0. 0. 0.
      0. 0. 0. 0. 0. 0. 0. 0. 0. 0. 0. 0. 0. 0. 0. 0. 0. 0. 0. 0.
      9.32372268e-003 2.25726794e-003 2.54777493e-003 0. 3.44939739e-003
      2.38019670e-003 2.35832226e-003 0. 7.39765679e-003 1.24027776e-002
      1.41903409e-004 4.24629106e-004 0. 9.11454484e-003 1.25093816e-003
      1.16405834e-003 1.84634671e-004 1.24027776e-002 3.21919262e-001
      5.68062179e-002 7.65192583e-002 3.04066911e-002 5.38149774e-002
      5.00176288e-002 3.06113772e-002 3.68757211e-002 1.80889443e-001
      4.73152220e-001 3.70226473e-001 4.73152220e-001 3.33307916e-003
      1.19031325e-001 2.86852233e-002 1.02514558e-001 8.03192481e-002
      4.73152220e-001 2.99134129e-003 2.76423962e-005 8.27166004e-005 0.
      1.72060460e-003 0. 4.13582457e-004 1.38212345e-004 2.99134129e-003
      2.14566477e-003 1.65854304e-004 6.17872865e-004 2.48676573e-004
      1.07751123e-003 0. 1.65432954e-004 1.51119239e-004 3.51273105e-003
      3.97305340e-001 1.87330574e-001 2.33147591e-001 1.55501859e-002
      6.52459636e-002 1.88338559e-003 1.07649900e-001 4.02064770e-002
      3.97305340e-001 3.97305340e-001 3.97305340e-001 2.92449266e-001
      4.80037816e-002 6.94366843e-002 2.23354134e-003 7.92301744e-002
      2.53116228e-002 3.97305340e-001 1.25024503e-003 5.31382939e-005
      3.75294127e-004 4.42405551e-004 2.90251017e-004 0. 0.
      5.90844138e-004 2.72615510e-003 8.27896642e-004 0. 8.65136171e-005
      1.76962203e-004 0. 0. 0. 1.18471868e-003 1.29896333e-003
      3.57160687e-001 3.57160687e-001 7.88528994e-002 4.19236645e-002
      3.62033285e-002 3.07014845e-002 1.41751692e-001 2.26481572e-001
      3.57160687e-001 3.57160687e-001 1.50576949e-001 3.25600803e-002
      7.08194375e-002 1.66516051e-001 7.61831850e-002 3.00735533e-001
      3.52506578e-001 3.57160687e-001 1.03667393e-001 3.14966924e-002
      1.41451985e-001 2.53277086e-002 8.50531533e-002 1.26827871e-002
      3.22093777e-002 9.67846997e-003 6.64049461e-002 3.11968565e-001
      1.65558010e-001 3.11968565e-001 2.55276542e-002 6.17947504e-002
      9.58815496e-003 5.45128845e-002 1.85328554e-002 3.11968565e-001
      1.65526763e-001 6.02343716e-002 2.40277708e-001 3.23797055e-002
      2.06257060e-001 4.22338732e-002 1.82955071e-001 3.71195450e-002
      1.36990696e-001 3.11968565e-001 2.79817700e-001 3.11968565e-001
      3.40612456e-002 1.40235588e-001 3.30739692e-002 2.03926548e-001
      5.26233651e-002 3.11968565e-001 2.66164511e-001 1.35545596e-001
      2.13799700e-001 3.34956236e-002 2.69805919e-002 1.04797841e-003
      9.12753120e-002 3.03177442e-002 2.66164511e-001 2.66164511e-001
      2.66164511e-001 1.82027966e-001 4.34245206e-002 3.23662609e-002
      8.71670723e-004 1.09231181e-001 3.70167308e-002 2.66164511e-001
      2.66164511e-001 1.92528069e-001 2.66164511e-001 3.99844609e-002
      3.05124912e-002 1.02677045e-003 9.23980698e-002 3.15071344e-002
      2.66164511e-001 2.66164511e-001 2.56269038e-001 1.75106958e-001
      4.38729636e-002 3.69342789e-002 4.35363501e-004 1.17864408e-001
      4.12918665e-002 2.66164511e-001 2.99117178e-001 2.99117178e-001
      8.48649964e-002 4.42781337e-002 3.10800094e-002 2.11266931e-002
      1.07426606e-001 1.06976129e-001 2.99117178e-001 2.99117178e-001
      1.88226253e-001 4.82812561e-002 8.57997015e-002 1.46304071e-001
      5.24241328e-002 1.76827595e-001 1.50905699e-001 2.79805809e-001
      2.99117178e-001 2.99117178e-001 6.32427335e-002 3.28629017e-002
      2.25068405e-002 8.45067669e-003 6.15305565e-002 3.44120525e-002
      2.99117178e-001 2.10680142e-001 1.73220947e-001 4.33488637e-002
      6.49312958e-002 8.72560441e-002 2.09696516e-002 6.23865165e-002
      3.39307450e-002 1.77020088e-001</_>
    <_>
      0. 0. 0. 0. 0. 0. 0. 0. 0. 0. 0. 0. 0. 0. 0. 0. 0. 0. 0. 0. 0. 0.
      0. 0. 0. 0. 0. 0. 0. 0. 0. 0. 0. 0. 0. 0. 0. 0. 0. 0. 0. 0. 0. 0.
      0. 0. 0. 0. 0. 0. 0. 0. 0. 0. 0. 0. 0. 0. 0. 0. 0. 0. 0. 0. 0. 0.
      0. 0. 0. 0. 0. 0. 0. 0. 0. 0. 0. 0. 0. 0. 0. 0. 0. 0. 0. 0. 0. 0.
      0. 0. 0. 0. 0. 0. 0. 0. 0. 0. 0. 0. 0. 0. 0. 0. 0. 0. 0. 0.
      4.77383733e-002 9.87124164e-003 2.22824421e-003 0. 2.54009962e-002
      0. 1.60267204e-002 5.35586243e-003 4.77383733e-002 5.20007052e-002
      2.46781074e-002 5.57061052e-003 0. 3.72495092e-002 4.83124238e-003
      7.98818283e-003 2.49246713e-002 5.20007052e-002 3.29324722e-001
      2.28521854e-001 9.35663953e-002 0. 3.41285676e-001 0.
      1.62039444e-001 5.41508384e-002 2.98142612e-001 3.41285676e-001
      1.68809816e-001 8.82199705e-002 2.67652087e-002 3.41285676e-001
      5.34129366e-002 2.79314876e-001 3.34029675e-001 3.41285676e-001
      1.00506265e-002 3.35069490e-003 7.56355294e-004 0. 6.37796847e-003
      3.16565461e-003 2.70575960e-003 3.10638361e-003 1.00506265e-002
      8.10782984e-003 3.70065123e-003 2.13934062e-003 0. 2.26780982e-003
      2.37424066e-003 4.12590662e-003 9.90913366e-004 8.10782984e-003
      3.31895262e-001 8.37086737e-002 8.13997760e-002 2.45958976e-002
      6.71494603e-002 2.18762457e-002 4.54693586e-002 6.95586652e-002
      2.40705714e-001 4.45196599e-001 4.45196599e-001 4.45196599e-001
      2.25641448e-002 5.10434136e-002 1.64105464e-002 3.85770984e-002
      5.65294065e-002 4.45196599e-001 2.29073758e-003 5.04175376e-004
      7.38215458e-004 0. 2.01176241e-004 0. 8.01819784e-004
      1.23975473e-003 2.49210512e-003 1.59742963e-003 0. 0. 0. 0. 0. 0.
      1.29573303e-003 1.86591933e-003 4.14166927e-001 2.10247710e-001
      1.82276502e-001 8.11549951e-004 1.43063311e-002 4.33814712e-002
      2.37494528e-001 7.41196200e-002 4.14166927e-001 4.14166927e-001
      2.44887953e-004 7.32795394e-004 0. 2.04700287e-002 9.83793661e-002
      3.90155762e-001 7.72683322e-002 4.14166927e-001 3.95434462e-002
      3.71924303e-002 6.96989223e-002 8.69217329e-003 4.72008698e-002
      1.35624909e-003 3.31803388e-003 4.38649952e-003 3.91301662e-002
      3.02801907e-001 1.73805952e-001 1.22396462e-001 2.03307308e-002
      5.53571619e-002 1.65057946e-002 1.19584678e-002 7.04843700e-002
      2.29217663e-001 9.05609578e-002 1.09326527e-001 2.51443475e-001
      4.95497361e-002 3.05071682e-001 3.71116679e-003 2.48316210e-002
      1.39737353e-001 9.09070298e-002 3.05071682e-001 3.05071682e-001
      3.05071682e-001 1.23313121e-001 3.05071682e-001 4.00605500e-002
      6.67371452e-002 3.05071682e-001 3.05071682e-001 1.86345175e-001
      1.52410761e-001 6.70433268e-002 3.82960844e-003 3.60224955e-002
      3.53521295e-002 2.22281031e-002 8.94565955e-002 1.26148000e-001
      2.74746746e-001 2.02407002e-001 2.12493315e-001 9.12101474e-004
      4.05511931e-002 2.64468715e-002 4.48863804e-002 6.58727065e-002
      2.74746746e-001 2.74746746e-001 2.42127731e-001 1.64387390e-001
      1.90424584e-002 1.34130895e-001 8.68690908e-002 6.28475547e-002
      2.56696314e-001 2.74746746e-001 2.74746746e-001 2.40695864e-001
      2.69557416e-001 1.09146093e-003 1.16577581e-001 6.50854334e-002
      1.10785611e-001 1.34201527e-001 2.74746746e-001 3.04918140e-001
      1.89659566e-001 1.55763850e-001 6.66944688e-005 5.05534187e-002
      1.83853749e-002 1.18117377e-001 3.07544582e-002 3.04918140e-001
      3.04918140e-001 7.46608824e-002 3.23351435e-002 0. 1.43572196e-001
      4.51355167e-002 1.77402869e-001 3.19308527e-002 2.02481434e-001
      3.04918140e-001 2.71398038e-001 2.25209326e-001 1.72285625e-004
      7.67882690e-002 1.38676083e-002 1.11369386e-001 3.05363014e-002
      3.04918140e-001 3.04918140e-001 1.47136703e-001 8.06873068e-002 0.
      1.88322872e-001 3.46690267e-002 1.33011118e-001 2.36940105e-002
      1.77305788e-001</_>
    <_>
      0. 0. 0. 0. 0. 0. 0. 0. 0. 0. 0. 0. 0. 0. 0. 0. 0. 0. 0. 0. 0. 0.
      0. 0. 0. 0. 0. 0. 0. 0. 0. 0. 0. 0. 0. 0. 0. 0. 0. 0. 0. 0. 0. 0.
      0. 0. 0. 0. 0. 0. 0. 0. 0. 0. 0. 0. 0. 0. 0. 0. 0. 0. 0. 0. 0. 0.
      0. 0. 0. 0. 0. 0. 0. 0. 0. 0. 0. 0. 0. 0. 0. 0. 0. 0. 0. 0. 0. 0.
      0. 0. 0. 0. 0. 0. 0. 0. 0. 0. 0. 0. 0. 0. 0. 0. 0. 0. 0. 0.
      4.42025699e-002 3.64521029e-003 0. 0. 3.08704618e-002 0. 0. 0.
      2.97922548e-002 4.87649590e-002 0. 0. 0. 6.88892603e-002 0. 0. 0.
      4.87649590e-002 3.13905716e-001 1.43249437e-001 3.76515724e-002
      1.85555413e-001 3.79355162e-001 0. 0. 0. 1.74568951e-001
      4.63613838e-001 5.22335656e-002 1.37760807e-002 6.74903095e-002
      4.63613838e-001 0. 1.68844182e-002 1.40667502e-002 4.63613838e-001
      8.33433867e-003 0. 0. 0. 9.91739240e-003 0. 0. 0. 8.33433867e-003
      7.87226390e-003 2.09913542e-003 5.64248476e-004 0. 4.95510269e-003
      0. 0. 0. 5.25470264e-003 4.36515182e-001 7.54602253e-002
      5.22483233e-003 3.39055201e-003 1.33940607e-001 4.89259232e-003
      1.09258862e-002 1.14897015e-002 4.36515182e-001 4.36515182e-001
      4.36515182e-001 1.07561618e-001 2.91344058e-003 7.05636889e-002
      6.52345549e-003 4.05903645e-002 1.89771689e-002 4.36515182e-001
      5.42136421e-003 1.23425655e-003 8.72873410e-004 0. 1.49378239e-003
      0. 0. 0. 4.13002213e-003 4.32763668e-003 1.16679403e-004
      3.49149283e-004 0. 1.76378724e-003 0. 0. 0. 4.32763668e-003
      3.79198641e-001 3.79198641e-001 1.12280935e-001 1.10978074e-002
      2.96786074e-002 3.38280238e-002 2.73117781e-001 6.77055866e-002
      3.79198641e-001 3.79198641e-001 1.46790758e-001 4.24956195e-002
      1.25379097e-002 4.79673073e-002 8.31210986e-002 3.79198641e-001
      8.19572732e-002 3.79198641e-001 7.94523358e-002 3.31989564e-002
      4.02629599e-002 1.31371059e-002 7.47980326e-002 0. 0.
      2.15021268e-004 5.17196953e-002 3.33444715e-001 2.17773542e-001
      5.73247597e-002 1.50398919e-002 6.47480413e-002 1.09175928e-002
      1.67926226e-003 1.88091975e-002 2.77602941e-001 2.51360863e-001
      8.75301138e-002 9.91541222e-002 5.59695512e-002 3.33444715e-001
      2.08032288e-004 9.67693180e-002 3.43484245e-002 1.30805522e-001
      3.33444715e-001 3.33444715e-001 2.26193801e-001 7.27270618e-002
      3.15897882e-001 2.76577380e-002 1.31615505e-001 6.92825764e-002
      3.33444715e-001 2.57189840e-001 1.07135408e-001 4.63500470e-002
      3.17935483e-003 3.21187004e-002 3.14046480e-002 2.05267258e-002
      5.89337870e-002 2.04086527e-001 3.00927490e-001 1.74037039e-001
      1.22831866e-001 2.10178131e-003 3.76259834e-002 2.37385966e-002
      4.60016876e-002 5.46881147e-002 2.73811936e-001 3.00927490e-001
      3.00927490e-001 1.75656646e-001 9.33826528e-003 8.90056267e-002
      7.81015009e-002 6.07767031e-002 8.85494202e-002 3.00927490e-001
      3.00927490e-001 2.27412120e-001 2.35490978e-001 3.35163763e-003
      1.10081486e-001 5.84142841e-002 1.08917370e-001 8.82399976e-002
      3.00927490e-001 3.00840944e-001 2.84296423e-001 1.12465158e-001
      3.89285176e-003 4.77055572e-002 1.33089107e-002 1.15456544e-001
      2.93558650e-002 3.00840944e-001 3.00840944e-001 9.98137817e-002
      2.39885449e-002 7.62522593e-003 1.36880472e-001 3.30883339e-002
      1.76301062e-001 3.24478112e-002 1.93557769e-001 3.00840944e-001
      3.00840944e-001 1.92032158e-001 3.77420103e-003 7.17270970e-002
      9.93876159e-003 1.07498907e-001 2.92336009e-002 3.00840944e-001
      3.00840944e-001 1.20969899e-001 4.41369899e-002 8.23319424e-003
      1.77758262e-001 2.48162486e-002 1.32138416e-001 2.43066587e-002
      1.78430632e-001</_>
    <_>
      3.95179540e-003 0. 0. 0. 5.49763488e-003 4.60124837e-004
      3.12938733e-004 2.42705503e-003 3.97859234e-003 5.80375409e-003
      5.06254612e-004 2.48188078e-002 4.89768165e-004 4.72260714e-002
      1.15031213e-003 0. 7.75925058e-004 5.96453436e-003 3.62783134e-001
      2.48724711e-003 0. 9.94275287e-002 3.62783134e-001 1.09308548e-002
      3.62423807e-001 2.73610294e-001 3.62783134e-001 1.62126407e-001
      4.60461378e-002 2.65160710e-001 7.05515966e-002 3.62783134e-001
      1.10013662e-002 2.73520052e-001 2.08714321e-001 1.68905944e-001
      4.36752103e-002 4.05323245e-002 7.55408555e-002 4.45594633e-004
      5.01517244e-002 5.62014902e-005 0. 6.71305461e-005 4.38946895e-002
      3.20565194e-001 1.81664467e-001 1.75725445e-001 1.61302811e-003
      4.62058671e-002 1.06440690e-004 7.81219627e-004 4.10219049e-003
      2.25050300e-001 9.16547030e-002 1.35275766e-001 3.20565194e-001
      5.14095910e-002 3.20565194e-001 1.06842641e-003 4.73542867e-004
      7.61397707e-004 8.70142430e-002 3.20565194e-001 3.20565194e-001
      3.20565194e-001 8.25467184e-002 3.20565194e-001 1.39091152e-003
      4.20750305e-003 2.38219816e-002 3.20565194e-001 3.40460479e-001
      1.35879248e-001 5.90025969e-002 1.49776938e-003 3.64422612e-002
      1.20203933e-002 6.76606148e-002 7.85756633e-002 2.06694767e-001
      1.34827122e-001 3.65963876e-002 7.62316678e-003 1.23822805e-003
      1.27738297e-001 2.97675151e-002 1.42287403e-001 1.15197629e-001
      9.37515572e-002 3.40460479e-001 2.89454967e-001 1.88838050e-001
      1.60220098e-002 3.40460479e-001 3.44953798e-002 9.96740684e-002
      1.43968493e-001 3.40460479e-001 1.44744873e-001 5.51738627e-002
      3.72654833e-002 6.14356855e-003 3.40460479e-001 8.20654854e-002
      1.93993941e-001 1.62754431e-001 1.14978507e-001 6.62014186e-002
      7.01702316e-004 0. 4.25262079e-002 4.79058266e-001 1.18769556e-002
      1.14845447e-001 7.30418190e-002 6.68397471e-002 2.79942453e-002
      6.63290406e-003 2.60785483e-002 2.58923899e-002 4.79058266e-001
      5.93664497e-003 8.62428397e-002 5.57239465e-002 2.87054107e-002
      8.73828214e-003 2.90250668e-004 2.72007383e-005 2.66594924e-002
      4.79058266e-001 1.55720145e-001 3.64508927e-002 1.91095509e-002
      9.14518908e-003 2.24035289e-002 4.11710143e-003 7.93190207e-003
      1.83102321e-002 4.79058266e-001 7.13278577e-002 2.77618673e-002
      1.46121932e-002 2.28139460e-002 1.81904584e-002 4.38882262e-002
      1.36049092e-001 4.88049015e-002 4.65406388e-001 2.78058602e-003
      3.76998330e-004 5.42754598e-004 1.55882705e-002 1.58787966e-001
      1.36924326e-001 1.94052666e-001 7.71769881e-002 4.65406388e-001
      3.26064834e-003 1.47699250e-003 7.16784224e-003 1.20834984e-001
      1.35835772e-002 1.05785280e-002 2.44193897e-002 1.66791007e-002
      4.65406388e-001 2.28010397e-002 1.23619242e-003 5.26407501e-004
      1.39154801e-002 5.15583530e-003 8.35399516e-003 2.15011146e-002
      2.28772145e-002 4.65406388e-001 1.78846084e-002 9.33430449e-004
      5.54667786e-004 3.22424178e-003 1.25581309e-001 7.86473304e-002
      6.04704022e-002 1.88912731e-002 4.85551029e-001 1.09054688e-002
      1.41773485e-002 3.15408856e-002 1.03983216e-001 1.91968977e-002
      1.08675677e-002 1.24017829e-002 8.81455000e-003 4.85551029e-001
      2.30111238e-002 2.33819727e-002 2.66043488e-002 1.97536889e-002
      1.48276575e-002 1.33679947e-003 2.83324788e-003 9.71481111e-003
      4.85551029e-001 7.35750375e-003 5.62433712e-002 1.46367671e-002
      1.01772370e-002 2.71053445e-002 8.06173994e-005 0. 8.44608061e-003
      4.85551029e-001 1.12367105e-002 7.48734772e-002 1.86869744e-002
      1.93667524e-002 2.53704805e-002 6.69117272e-002 3.58875431e-002
      2.09772140e-002 3.26306134e-001 1.13936692e-001 5.29762655e-002
      7.91271403e-003 3.15758064e-002 1.67273849e-001 2.42678106e-001
      8.95558372e-002 2.23331340e-002 3.26306134e-001 6.50644004e-002
      6.10926598e-002 1.55981686e-002 1.21558733e-001 1.47287354e-001
      1.63816333e-001 7.15471581e-002 6.97385520e-002 3.26306134e-001
      4.54016365e-002 1.23836935e-001 1.64598636e-002 1.70728877e-001
      3.26306134e-001 3.26306134e-001 2.09375381e-001 6.35956749e-002
      2.25090086e-001 3.28228585e-002 1.01672158e-001 2.28164829e-002
      3.26306134e-001 1.29959658e-001 2.56440073e-001 2.23591834e-001
      4.03019488e-002 3.33030254e-001 7.28727058e-002 1.39671061e-002
      3.20770442e-002 1.11006886e-001 1.27145946e-002 1.12287000e-001
      1.56163499e-001 3.59677598e-002 3.33030254e-001 5.47841191e-002
      4.54773847e-003 1.35898385e-002 1.93196964e-002 3.33030254e-001
      3.33030254e-001 3.33030254e-001 6.24055639e-002 1.74769536e-001
      4.81182225e-002 1.55270100e-002 4.24205512e-002 2.93215126e-001
      2.54633445e-002 1.60046235e-001 2.15275913e-001 4.96013574e-002
      2.10447669e-001 3.60803455e-002 4.47064405e-003 1.77771766e-002
      3.47467437e-002 1.04320332e-001 2.83670723e-002 2.48394161e-002
      1.29938088e-002 5.13479054e-001 1.53115783e-002 2.89612502e-001
      7.81512037e-002 7.57506564e-002 2.36075252e-001 1.49517029e-003
      6.66829292e-004 7.88002554e-003 5.13479054e-001 1.65473707e-002
      3.84928316e-001 1.01964377e-001 1.75715566e-001 5.89896850e-002
      3.27330455e-002 2.05049999e-002 4.77445126e-003 1.47618309e-001
      2.63487687e-003 8.57219994e-002 2.65366267e-002 4.67467196e-002
      1.32642776e-001 2.15401175e-003 8.89105548e-004 1.39147055e-003
      1.85136274e-001 2.12588930e-003 1.11440517e-001 3.37594412e-002
      1.05539985e-001</_>
    <_>
      5.17495256e-003 2.81833438e-003 3.53277125e-003 2.45706690e-003
      9.46008600e-003 0. 0. 0. 4.20006411e-003 1.85374394e-002
      1.24982204e-002 3.54349203e-002 3.55580226e-002 4.01857123e-002
      5.60980104e-003 4.05321643e-003 8.29375908e-003 1.49957603e-002
      3.80080163e-001 9.57220048e-002 2.81811416e-001 3.43549438e-003
      3.96433413e-001 2.73806648e-003 2.42008150e-001 7.81125948e-002
      3.78883451e-001 2.27569759e-001 7.55672082e-002 2.63769269e-001
      1.35345027e-001 3.96433413e-001 1.39559004e-002 1.85218245e-001
      6.41935095e-002 2.26471081e-001 3.64735350e-002 6.99398741e-002
      1.22937195e-001 2.82345004e-002 2.08056457e-002 2.59660766e-003
      9.79695353e-004 2.42014066e-003 3.18618901e-002 3.04625779e-001
      3.04625779e-001 2.03315571e-001 2.12974250e-002 1.87311880e-002
      1.65633229e-003 9.10798117e-005 2.50815763e-003 2.18519077e-001
      5.43615632e-002 1.56042889e-001 3.04625779e-001 1.39951661e-001
      3.04625779e-001 8.83081555e-003 6.92622212e-004 1.40016235e-003
      3.80621701e-002 3.04625779e-001 3.04625779e-001 3.04625779e-001
      1.17613427e-001 3.04625779e-001 7.42286537e-003 7.94696243e-005
      4.76092147e-003 2.80632585e-001 3.26052070e-001 2.63584375e-001
      1.09563515e-001 1.57634635e-003 9.31923836e-002 3.69312167e-002
      2.31631268e-002 7.09811645e-003 2.29868591e-001 1.43628687e-001
      8.53503421e-002 5.60416207e-002 2.38022953e-003 1.80857867e-001
      8.55383351e-002 5.81118651e-002 6.11101463e-003 1.15518995e-001
      3.26052070e-001 3.26052070e-001 2.15872988e-001 1.21455025e-002
      3.26052070e-001 9.43849906e-002 1.85605157e-002 1.64106600e-002
      2.62104839e-001 1.17070317e-001 1.40852273e-001 9.76827145e-002
      1.27894776e-002 3.26052070e-001 2.19057590e-001 4.62514088e-002
      1.25866700e-002 1.17831774e-001 5.86853921e-002 2.47650556e-002
      7.40683079e-002 2.30024569e-003 4.89630193e-001 2.27573561e-003
      6.57884330e-002 2.13097595e-002 5.86034358e-002 3.53616960e-002
      1.47662265e-002 4.38108630e-002 1.61655825e-002 4.89630193e-001
      9.17643774e-003 5.01303189e-002 1.66179929e-002 3.49826589e-002
      6.55882899e-003 5.82087971e-003 1.61600057e-002 1.97739825e-002
      4.89630193e-001 5.23891766e-003 2.17529982e-002 8.89580138e-003
      4.31324868e-003 4.80158478e-002 2.61540655e-002 4.79113199e-002
      1.79176647e-002 4.89630193e-001 2.05054004e-002 3.39151211e-002
      1.59253608e-002 4.34071310e-002 1.21118557e-002 3.95378768e-002
      1.12025343e-001 6.32852167e-002 4.71512228e-001 2.99012493e-002
      3.94513481e-004 4.85456898e-004 7.07166363e-003 1.20774843e-001
      1.35776952e-001 1.62140578e-001 5.76964989e-002 4.71512228e-001
      2.48628259e-002 5.23053866e-004 1.07339339e-003 5.68403974e-002
      4.74949032e-002 3.93467695e-002 5.33469543e-002 1.71929244e-002
      4.71512228e-001 7.10318759e-002 3.31002176e-002 1.21870060e-002
      3.68935987e-002 1.94792394e-002 2.48051751e-002 2.84382850e-002
      1.61734857e-002 4.71512228e-001 5.62815405e-002 2.02765409e-002
      4.42421809e-003 5.98085020e-003 9.19781327e-002 9.03284848e-002
      5.02850488e-002 1.16064418e-002 4.83863413e-001 3.13880667e-002
      9.88036278e-004 3.69318668e-003 5.38435727e-002 1.27899703e-002
      2.50185709e-002 1.68254338e-002 1.31181907e-002 4.83863413e-001
      6.65799007e-002 1.04471028e-003 2.68115546e-003 1.84704904e-002
      1.92031786e-002 3.14944703e-003 3.84175451e-003 7.99283944e-003
      4.83863413e-001 5.54026058e-003 9.10178348e-002 3.15168127e-002
      1.75857190e-002 3.75726447e-002 2.08383441e-004 3.29455739e-004
      1.09872865e-002 4.83863413e-001 9.58547555e-003 1.20495662e-001
      4.17579599e-002 3.87501419e-002 6.27653971e-002 3.00226510e-002
      3.01661938e-002 7.68999457e-002 3.12373966e-001 1.58148929e-002
      7.18381554e-002 7.31670856e-002 4.11105156e-002 2.67950088e-001
      1.47415549e-001 1.90186918e-001 6.81968182e-002 3.12373966e-001
      1.84093527e-002 9.52069089e-002 6.28926158e-002 2.28317767e-001
      1.43579006e-001 6.71058223e-002 9.74764526e-002 9.05738249e-002
      3.12373966e-001 6.80106431e-002 1.26036763e-001 1.19563684e-001
      1.20406643e-001 3.12373966e-001 2.31004328e-001 2.99389929e-001
      7.81166479e-002 1.55627400e-001 3.96919027e-002 1.13390125e-001
      7.17963651e-002 3.12373966e-001 2.85365641e-001 2.54048377e-001
      2.63273716e-001 7.31017515e-002 3.09693754e-001 5.19031696e-002
      1.23015776e-001 6.09266870e-002 2.06220165e-001 9.89040360e-002
      1.17013283e-001 1.02510735e-001 5.76213673e-002 3.09693754e-001
      4.06953357e-002 6.86120391e-002 2.24514436e-002 1.80491935e-002
      3.09693754e-001 3.09693754e-001 2.83263445e-001 6.74750581e-002
      1.66955233e-001 1.28950104e-002 6.91276342e-002 4.51268367e-002
      3.09693754e-001 9.80472416e-002 1.18185416e-001 7.78046921e-002
      5.23863137e-002 1.84045285e-001 1.01353917e-002 3.46109159e-002
      1.68028772e-002 2.60800514e-002 1.39925256e-001 2.36605108e-002
      2.82097701e-002 1.66097432e-002 4.69902337e-001 8.04163143e-003
      3.24004620e-001 1.15229830e-001 1.12954833e-001 2.66149670e-001
      2.35232734e-003 2.03696080e-003 2.31138002e-002 4.69902337e-001
      1.70328394e-002 4.30015415e-001 1.53357834e-001 2.67521948e-001
      6.71376809e-002 1.05798868e-002 1.28140738e-002 3.48966592e-003
      9.99452993e-002 5.27036516e-003 3.03146970e-002 1.21595161e-002
      4.65418696e-002 1.00515455e-001 2.48162611e-003 3.44841485e-003
      3.64399399e-003 1.01746850e-001 3.49737005e-003 3.83957066e-002
      1.60474237e-002 9.72253382e-002</_>
    <_>
      6.20745262e-003 3.62084759e-003 1.39242678e-003 5.56125888e-004
      4.24253143e-004 0. 5.68799616e-004 6.05273899e-003 6.82138931e-003
      5.48451906e-003 6.70031598e-003 2.71475110e-002 1.39479490e-003
      1.06688570e-002 0. 9.92164598e-004 2.78305751e-003 7.00871786e-003
      3.31865817e-001 2.39154585e-002 4.19528084e-003 7.50564188e-002
      3.79271120e-001 1.52290920e-002 7.38213882e-002 3.79271120e-001
      3.63180220e-001 1.39553621e-001 8.32802504e-002 3.00209761e-001
      6.03515357e-002 3.79271120e-001 1.25855580e-002 1.13155164e-001
      3.79271120e-001 1.80611566e-001 1.41147450e-002 6.27046302e-002
      9.93115082e-002 1.78446091e-004 6.51262607e-003 1.88048303e-004
      4.54881345e-004 7.88609686e-005 1.35869533e-002 3.10857892e-001
      2.16816425e-001 2.07671553e-001 2.20527378e-004 9.44975484e-003
      1.12828938e-003 5.93820540e-003 3.60614969e-003 2.03569859e-001
      3.85843068e-002 1.98060080e-001 3.15870136e-001 4.41084541e-002
      3.15870136e-001 1.37784670e-003 3.89877670e-002 1.33129572e-002
      3.10578719e-002 3.15870136e-001 3.15870136e-001 3.15870136e-001
      8.51535872e-002 3.15870136e-001 1.45037239e-003 5.47432639e-002
      1.67369861e-002 3.15870136e-001 3.19990993e-001 9.30586532e-002
      9.76757482e-002 1.02234329e-003 5.96384555e-002 4.02069330e-004
      4.24301289e-002 1.36872241e-002 2.58816481e-001 1.42763749e-001
      1.96713619e-002 4.81530949e-002 2.07733642e-003 1.30514428e-001 0.
      7.77636841e-002 2.29579192e-002 1.30338624e-001 3.19990993e-001
      2.48016998e-001 3.19990993e-001 1.83432642e-002 3.19990993e-001
      3.86377098e-003 1.48971841e-001 4.52581048e-002 3.19990993e-001
      1.88504666e-001 7.39242882e-002 1.82795033e-001 6.87082671e-003
      3.19990993e-001 8.45927279e-003 1.86797306e-001 5.71296215e-002
      1.70949876e-001 5.16868569e-002 2.59439554e-003 5.13522828e-004
      4.33223695e-002 4.72399682e-001 4.98822192e-003 2.19483040e-002
      1.57605991e-001 5.53760044e-002 2.25025285e-002 1.18467687e-002
      4.15655449e-002 2.41694488e-002 4.72399682e-001 4.90650674e-003
      3.70520428e-002 1.24731950e-001 2.68024188e-002 9.38174315e-003
      1.97244645e-003 1.22352247e-003 1.85704634e-001 4.72399682e-001
      1.51912672e-002 7.92105775e-003 4.38322425e-002 7.22950278e-003
      3.72211561e-002 8.39102734e-003 3.22922841e-002 8.68473276e-002
      4.72399682e-001 1.21640982e-002 1.50332116e-002 3.53816636e-002
      2.28535328e-002 1.29921371e-002 7.40209818e-002 2.33629167e-001
      4.88670729e-002 4.17145729e-001 4.05910332e-003 6.79485127e-002
      2.15770230e-002 8.58866610e-003 1.39369085e-001 1.63645178e-001
      3.29520494e-001 9.08776522e-002 4.17145729e-001 3.31503106e-003
      5.85841089e-002 1.80488285e-002 7.59015828e-002 2.42980290e-002
      4.51077074e-002 1.54361486e-001 3.03085186e-002 4.17145729e-001
      9.52812843e-003 5.02919964e-002 1.56415273e-002 1.21142240e-002
      4.12880071e-003 4.59274501e-002 1.51571974e-001 3.03280056e-002
      4.17145729e-001 1.00655453e-002 5.14826700e-002 1.63269229e-002
      1.47208758e-003 1.34960666e-001 1.02256790e-001 1.85869709e-001
      2.62885410e-002 4.35850769e-001 6.72577322e-003 9.33885276e-002
      3.19014676e-002 9.01294574e-002 3.03197782e-002 5.87838218e-002
      1.51256904e-001 1.08700823e-002 4.35850769e-001 1.16459522e-002
      1.08299300e-001 3.79585251e-002 2.75000632e-002 1.32071041e-002
      3.77169512e-002 1.02670051e-001 1.28590548e-002 4.35850769e-001
      9.63860098e-003 1.28620580e-001 4.46537957e-002 1.19229248e-002
      2.73703188e-002 5.95833398e-002 1.63408220e-001 1.18099060e-002
      4.35850769e-001 1.01715410e-002 2.10372835e-001 7.24897310e-002
      2.64684130e-002 1.05493329e-002 4.56451774e-002 6.54973984e-002
      1.08015396e-001 3.06384683e-001 7.34042153e-002 4.56952229e-002
      1.24663794e-002 2.87012234e-002 1.54635280e-001 1.46660268e-001
      1.51455939e-001 6.85712323e-002 3.06384683e-001 3.25944126e-002
      6.33337498e-002 1.96155943e-002 1.07638136e-001 6.44149631e-002
      8.80415887e-002 1.22393131e-001 1.13703683e-001 3.06384683e-001
      1.02183022e-001 1.35339588e-001 8.18262696e-002 1.33729428e-001
      3.06384683e-001 3.06384683e-001 2.76463658e-001 1.17099822e-001
      2.95769542e-001 4.40744162e-002 1.87344223e-001 9.58341062e-002
      3.06384683e-001 1.73374385e-001 1.51146412e-001 2.95373499e-001
      3.47272679e-002 2.95373499e-001 8.14849231e-003 6.87406361e-002
      2.23765858e-002 1.07294433e-001 2.54700370e-002 8.43890011e-002
      2.46210709e-001 1.53931249e-002 2.95373499e-001 8.87057278e-003
      7.39826411e-002 2.44453214e-002 1.73310265e-002 2.95373499e-001
      2.63339013e-001 2.95373499e-001 2.46030837e-002 2.75970668e-001
      2.97776144e-003 7.71316364e-002 2.54798476e-002 2.95373499e-001
      5.95273003e-002 1.05762176e-001 2.79261529e-001 6.53158780e-003
      2.80654669e-001 2.70744925e-003 3.00947018e-002 1.02554439e-002
      4.81669195e-002 8.65462869e-002 3.89704853e-002 1.05538219e-001
      1.05304485e-002 4.30446625e-001 1.40417516e-002 3.82757097e-001
      1.33051172e-001 8.46678093e-002 2.07137778e-001 3.06277014e-002
      8.45173374e-002 1.40768848e-002 4.30446625e-001 1.13709942e-002
      4.30446625e-001 1.92692116e-001 1.99213579e-001 5.31282760e-002
      1.80627555e-002 4.23827060e-002 1.10178743e-003 1.57684520e-001
      5.19782957e-003 9.10829380e-002 3.37246656e-002 5.31747788e-002
      1.20916955e-001 2.01652572e-003 1.65811530e-003 1.25297043e-003
      1.93192422e-001 4.46121814e-003 1.05052523e-001 3.77145186e-002
      1.15572110e-001</_>
    <_>
      2.89587546e-002 2.54761719e-004 5.25266456e-004 0. 2.49546347e-003
      0. 2.10106591e-004 7.18606636e-004 2.52172127e-002 2.99320500e-002
      2.06600688e-003 1.23321554e-002 0. 3.72387767e-002 2.66449730e-004
      4.99296526e-004 2.07917928e-003 2.94365007e-002 3.30522865e-001
      3.24674905e-003 1.96899590e-003 6.45618215e-002 4.21684027e-001
      1.60672911e-003 4.21684027e-001 2.21239939e-001 3.06277990e-001
      1.74557000e-001 1.40372394e-002 7.34546483e-002 3.09524499e-002
      4.21684027e-001 8.07389524e-003 3.25423807e-001 1.74627155e-001
      1.66967899e-001 5.28590716e-002 5.83999511e-003 3.55015397e-002
      6.25360117e-005 7.40103796e-002 6.39348931e-004 3.59512828e-002
      1.08697917e-002 1.00405410e-001 4.25698608e-002 5.94096491e-003
      2.78671291e-002 8.92385142e-004 1.25032514e-001 6.73752453e-004
      4.81926277e-002 1.37335183e-002 1.04739778e-001 1.17025763e-001
      3.53570729e-002 2.12858841e-001 1.42687317e-002 5.46902657e-001
      3.19998190e-002 2.17125148e-001 3.24700065e-002 2.35907599e-001
      8.87062326e-002 2.74170153e-002 1.60660416e-001 1.16914036e-002
      5.46902657e-001 3.29950862e-002 2.85573334e-001 3.73344868e-002
      2.44130999e-001 6.03777692e-002 6.74241781e-002 5.90573624e-002
      1.09234708e-003 2.58218318e-001 2.06404608e-002 2.43601445e-002
      1.16637489e-003 4.00237553e-002 1.14634074e-001 8.85474682e-002
      7.74862617e-002 2.30476283e-003 4.67160940e-001 5.15032634e-002
      5.19364364e-002 1.16365474e-004 8.37950036e-002 4.08220701e-002
      6.04641810e-002 7.72487298e-002 1.53860368e-003 5.50418496e-001
      2.91794911e-002 4.78456132e-002 2.74701719e-003 3.34240943e-002
      7.58409798e-002 7.96500966e-002 1.01833828e-001 2.89813499e-003
      5.50418496e-001 6.83432668e-002 6.72259405e-002 0. 5.27116768e-002
      4.73335721e-002 1.34327984e-003 6.75963878e-004 2.36621294e-002
      4.88205492e-001 2.29014852e-003 1.06005028e-001 4.95745465e-002
      4.46075089e-002 2.21604835e-002 1.63627742e-003 7.89610110e-003
      1.23142377e-002 4.88205492e-001 3.68416589e-003 8.11834484e-002
      3.96014936e-002 2.15882063e-002 3.93670006e-003 5.37162181e-003
      1.89598110e-002 1.92848220e-002 4.88205492e-001 1.47001026e-002
      2.05229484e-002 8.82737432e-003 3.89723270e-003 6.19048998e-002
      2.10886337e-002 5.11690974e-002 1.36674521e-002 4.88205492e-001
      1.32607380e-002 3.42237800e-002 1.48810176e-002 6.12381734e-002
      9.76895541e-003 5.24365995e-003 3.13982293e-002 1.08867632e-002
      4.59071606e-001 1.35996640e-002 3.29001471e-002 4.45581926e-003
      1.97730809e-002 7.25618051e-003 3.86218913e-003 2.35000607e-002
      1.05481911e-002 4.59071606e-001 1.31703280e-002 4.20301184e-002
      3.53910844e-003 2.05517262e-002 6.65295422e-002 2.70512272e-002
      4.11322638e-002 1.31926620e-002 4.59071606e-001 5.34597747e-002
      6.00155368e-002 2.89476272e-002 7.42254928e-002 2.35519424e-001
      1.52140647e-001 2.97853816e-002 1.75770279e-002 4.59071606e-001
      9.05903727e-002 6.13182820e-002 4.56231274e-002 1.80899590e-001
      7.23100209e-004 1.80838152e-003 5.85259404e-003 4.91997786e-003
      4.53835160e-001 3.68569023e-003 7.06970831e-003 4.15528339e-004
      3.05376039e-003 1.96688503e-004 2.41117482e-003 7.73407659e-003
      3.92818032e-003 4.53835160e-001 6.12151111e-003 5.08547435e-003 0.
      5.22234361e-004 2.54847497e-001 1.34527862e-001 1.13979071e-001
      5.81440814e-002 4.53835160e-001 1.79232433e-002 6.61951303e-003
      8.65828898e-003 1.58013284e-001 7.64455274e-002 6.14072494e-002
      1.53925270e-001 1.06035255e-001 4.53835160e-001 3.68334167e-003 0.
      0. 4.39487882e-002 5.09975404e-002 5.40140830e-002 7.92716071e-002
      2.72518229e-002 3.12689215e-001 2.80455388e-002 7.74003193e-002
      6.43540919e-002 5.10975420e-002 2.97922939e-001 1.80534869e-001
      2.24304423e-001 2.59033218e-002 3.12689215e-001 2.38869675e-002
      1.04170844e-001 5.92419840e-002 2.81635374e-001 1.57466501e-001
      6.73359036e-002 6.58176765e-002 1.58975404e-002 2.87259072e-001
      3.41914110e-002 1.28324836e-001 8.67495388e-002 1.56176686e-001
      3.12689215e-001 2.69696891e-001 2.10043907e-001 2.18959842e-002
      1.19849414e-001 2.62953285e-002 1.05977483e-001 5.92631325e-002
      3.12689215e-001 2.58357733e-001 1.23525664e-001 1.76123157e-001
      2.99877133e-002 2.58357733e-001 7.10683465e-002 1.45505503e-001
      9.94865298e-002 2.58357733e-001 2.58357733e-001 2.58357733e-001
      8.71242583e-002 2.39060130e-002 2.58357733e-001 1.09545276e-001
      1.09180026e-001 1.16633408e-001 2.58357733e-001 2.58357733e-001
      1.66464373e-001 1.58679903e-001 3.97626348e-002 3.62392180e-002
      2.72410791e-002 7.59859979e-002 8.06090981e-002 2.58357733e-001
      2.58357733e-001 2.23044708e-001 6.56993762e-002 2.70937774e-002
      2.23485902e-002 3.56573984e-002 4.56929132e-002 8.21155161e-002
      2.58357733e-001 2.88874269e-001 2.88874269e-001 2.88874269e-001
      7.84457400e-002 2.88874269e-001 3.05548012e-002 1.07427984e-002
      2.86250338e-002 2.88874269e-001 2.37014785e-001 1.69944555e-001
      2.88874269e-001 1.68762729e-001 2.88874269e-001 3.21161863e-003
      4.47930215e-004 1.56696842e-004 1.23486534e-001 2.88874269e-001
      2.70951152e-001 1.36759669e-001 1.11589776e-002 1.06786694e-002
      7.71500589e-003 2.99766776e-003 1.68101899e-002 2.38415286e-001
      1.22313626e-001 7.04137832e-002 1.37160733e-001 2.78974473e-002
      2.19279882e-002 6.48940215e-004 1.24362472e-003 9.40180675e-004
      5.62502630e-002</_>
    <_>
      3.00753526e-002 6.75665797e-004 1.61003263e-004 1.92337728e-003
      4.32325620e-003 0. 0. 0. 2.86207832e-002 4.89436276e-002
      4.90304688e-003 2.05349699e-002 1.71446111e-002 3.42159113e-003 0.
      0. 0. 3.26415859e-002 4.32588071e-001 6.32313592e-003
      1.87589845e-003 1.69204623e-002 4.32588071e-001 1.09839171e-001
      4.11132304e-003 1.54390209e-003 3.85463029e-001 3.29666436e-001
      2.92116273e-002 2.31774271e-001 2.25483760e-001 4.32588071e-001
      8.89897570e-002 1.17985869e-003 5.35632775e-004 2.12863386e-001
      8.94400030e-002 6.88721286e-003 2.88053043e-002 2.32020188e-002
      6.28794543e-003 3.26468982e-002 8.49967822e-004 0. 5.62208146e-002
      7.46987537e-002 1.14902277e-002 2.14200169e-002 1.18622174e-002
      1.03309140e-001 4.43402119e-002 1.13329012e-003 0. 4.95714359e-002
      3.44661921e-001 4.10669297e-002 3.14860910e-001 3.52778047e-001
      3.52778047e-001 2.11544365e-001 5.09980461e-003 4.22113044e-005
      1.39740855e-001 2.70352215e-001 2.91835014e-002 1.27952725e-001
      3.52778047e-001 3.52778047e-001 2.74878144e-001 6.79973839e-003 0.
      1.17203519e-001 1.11979790e-001 4.99078957e-003 7.55641516e-003
      4.98126494e-003 4.03480023e-001 6.64718589e-003 1.81431288e-003
      5.06822369e-004 1.03204019e-001 1.46053672e-001 1.15986378e-003
      3.14694527e-003 6.94258604e-003 4.92450327e-001 2.19430495e-003
      5.57327643e-003 1.26795715e-003 1.34790331e-001 8.96765590e-002
      8.40568100e-004 1.76600367e-003 3.64592150e-002 4.92450327e-001
      2.92654671e-002 1.48796092e-003 1.58494673e-004 8.34217742e-002
      1.14910863e-001 2.11771199e-004 6.33698597e-004 7.48996297e-003
      4.92450327e-001 7.56278285e-004 2.96736718e-003 6.55471697e-004
      1.06571145e-001 1.01140730e-001 1.92652224e-003 9.83862672e-004
      1.25347981e-002 4.80145901e-001 3.62421386e-002 3.13325040e-003
      1.15855434e-003 6.91661313e-002 5.61895818e-002 5.20521402e-003
      4.09207828e-002 5.02634794e-002 4.80145901e-001 3.18585746e-002
      2.48372299e-003 1.90388382e-004 3.36074717e-002 2.18911786e-002
      3.23433876e-002 4.80935350e-003 1.58299915e-002 4.80145901e-001
      1.65985040e-002 1.15523208e-002 1.70688294e-002 2.12190412e-002
      1.33778706e-001 6.81881905e-002 1.41765354e-002 3.63608934e-002
      4.80145901e-001 3.57378386e-002 5.33597916e-002 1.97520871e-002
      1.24397427e-001 4.36397418e-002 6.52957801e-003 6.50162548e-002
      1.66943893e-001 4.07039791e-001 4.31389511e-002 1.08309055e-003
      3.34913275e-005 1.25324586e-002 3.38798054e-002 4.21778392e-003
      2.57984251e-002 1.54395074e-001 4.07039791e-001 4.82286923e-002
      1.07561401e-003 0. 1.05675450e-002 1.06385760e-001 4.55757193e-002
      2.04171166e-002 5.91157153e-002 4.07039791e-001 5.23837954e-002
      1.33506209e-001 3.20575908e-002 9.28202420e-002 3.40994149e-001
      1.96396023e-001 6.69773072e-002 3.79462093e-002 4.07039791e-001
      3.14174294e-002 1.21930577e-001 3.52080651e-002 2.08928064e-001
      6.31187577e-003 0. 3.39715043e-005 2.12211553e-002 3.83186817e-001
      8.19840189e-003 2.17502136e-004 0. 6.61766529e-003 7.32917245e-003
      0. 0. 7.61292293e-004 3.83186817e-001 1.77616405e-003 0. 0.
      7.73689244e-003 3.83186817e-001 2.25855380e-001 3.77217755e-002
      6.82369387e-003 3.83186817e-001 5.64405881e-002 8.25144500e-002
      2.58915629e-002 3.47427696e-001 1.76678121e-001 8.83543119e-002
      1.27135334e-003 4.02266579e-003 3.83186817e-001 7.73840696e-002
      5.63808568e-002 1.68845057e-002 1.70147642e-001 1.02287717e-001
      9.09197852e-002 1.53108360e-002 7.69795151e-003 2.86685616e-001
      7.39526749e-003 1.45699337e-001 8.47658366e-002 1.04716137e-001
      2.86685616e-001 2.34061718e-001 1.04345247e-001 3.50948907e-002
      2.86685616e-001 2.20700949e-002 1.44571424e-001 6.81022182e-002
      2.86685616e-001 2.15206802e-001 7.58187324e-002 1.86529085e-002
      3.54592176e-003 1.93327323e-001 3.49347759e-003 2.55958110e-001
      1.12702042e-001 2.08848238e-001 2.86685616e-001 2.65816718e-001
      1.75627649e-001 1.31109674e-002 6.95273355e-002 4.74551320e-003
      1.70147732e-001 7.40924552e-002 2.86685616e-001 2.65130699e-001
      1.31219909e-001 1.09392881e-001 6.79455027e-002 2.65130699e-001
      6.71237186e-002 2.32249185e-001 5.89169674e-002 2.65130699e-001
      2.65130699e-001 2.65130699e-001 1.35900870e-001 2.84037981e-002
      2.65130699e-001 5.40688261e-002 1.91345975e-001 5.18619046e-002
      2.65130699e-001 2.65130699e-001 1.38234198e-001 1.46632671e-001
      2.58520301e-002 4.63700369e-002 2.92303432e-002 1.01893142e-001
      2.67258137e-002 2.65130699e-001 2.65130699e-001 1.69101819e-001
      8.18282738e-002 1.09996907e-002 3.24448161e-002 3.29184681e-002
      7.29904845e-002 1.72001217e-002 1.96560234e-001 3.09590667e-001
      3.09590667e-001 1.28562391e-001 4.38517286e-003 3.09590667e-001
      9.67184901e-002 1.43810064e-001 4.39982451e-002 3.09590667e-001
      3.09590667e-001 1.00078486e-001 6.81280997e-003 4.90455562e-003
      3.09590667e-001 1.20909490e-001 9.62591916e-002 2.92350966e-002
      2.97184199e-001 3.09590667e-001 1.81987584e-001 7.75039792e-002
      2.41342024e-003 5.60970418e-002 2.23903190e-002 2.92096697e-002
      8.21981579e-003 2.66588241e-001 1.23709947e-001 1.33203128e-002
      5.27018029e-003 1.30621216e-003 1.00220315e-001 2.03653462e-002
      1.80052314e-002 6.51099952e-003 1.14940599e-001</_>
    <_>
      4.18508053e-003 1.16195739e-003 3.47701577e-003 0. 5.18601667e-003
      0. 0. 0. 4.18508053e-003 6.57772785e-003 1.98419701e-004
      5.93746139e-004 0. 9.18956939e-003 0. 0. 5.72829216e-004
      6.69642445e-003 3.86818767e-001 9.26610082e-003 2.77276486e-002
      1.42478272e-002 3.86818767e-001 8.36546719e-003 2.73555308e-003
      4.25721519e-003 3.86818767e-001 3.86818767e-001 1.39384151e-001
      2.65648633e-001 1.83891021e-002 3.86818767e-001 5.23940772e-002
      6.15074933e-002 9.87290405e-003 3.86818767e-001 1.67853050e-002
      2.54474638e-004 2.64097209e-004 1.60666328e-004 4.06060321e-003 0.
      0. 5.10383630e-004 1.77783258e-002 2.31620334e-002 2.37051840e-003
      8.03314266e-004 2.47173384e-003 8.32743198e-003 0. 0.
      2.04153403e-004 2.18110755e-002 2.34935045e-001 2.16837630e-001
      3.69092256e-001 1.38038211e-002 3.69092256e-001 1.28189996e-001
      1.87802926e-001 5.88813797e-003 2.29295105e-001 3.14769655e-001
      1.79233447e-001 3.20112497e-001 2.97033675e-002 3.69092256e-001
      1.34856582e-001 1.97450101e-001 2.13702349e-003 2.95741946e-001
      4.77494411e-002 9.46440082e-003 2.61029210e-002 5.01216576e-002
      4.57958505e-002 5.27656404e-004 0. 0. 4.76281941e-002
      1.12576626e-001 1.16112046e-002 3.45282331e-002 6.56550452e-002
      1.63057461e-001 3.16593726e-003 0. 0. 1.14465207e-001
      1.06285743e-001 5.90218343e-002 2.84748048e-001 1.83041424e-001
      5.00415504e-001 1.63112208e-002 8.71911459e-003 0. 1.03112869e-001
      2.00970724e-001 6.98242411e-002 3.74704570e-001 2.40116253e-001
      5.00415504e-001 2.00003106e-002 0. 0. 2.05344588e-001
      1.24261387e-001 9.43324296e-004 2.82277889e-003 6.90332847e-003
      4.82119173e-001 5.09257335e-003 4.40797652e-004 2.39585270e-003
      1.24977708e-001 9.78996381e-002 1.77693162e-002 4.59652953e-002
      7.09152874e-003 4.82119173e-001 3.18129100e-002 4.81934845e-002
      2.41732993e-003 9.75535512e-002 3.64096984e-002 1.51659409e-003
      1.29324605e-003 1.56039391e-002 4.82119173e-001 1.34101938e-002
      8.05116069e-005 3.95460799e-003 3.89950462e-002 3.63283344e-002
      3.97940027e-003 1.22157503e-002 1.87543668e-002 4.82119173e-001
      3.26453298e-002 4.29533720e-002 3.43933608e-003 3.62148695e-002
      4.78556342e-002 5.42718582e-002 1.50877506e-001 9.43017285e-003
      4.38859046e-001 1.19222119e-001 1.93443194e-001 2.66606850e-003
      4.54754941e-002 6.26480952e-002 4.28728126e-002 1.14849910e-001
      1.36701567e-002 4.38859046e-001 1.06682107e-001 1.67660519e-001
      1.51788257e-003 5.87310046e-002 1.41152237e-002 7.18149822e-003
      3.69360894e-002 2.80463751e-002 4.38859046e-001 9.54340100e-002
      1.46978796e-001 1.21324481e-002 2.22118739e-002 8.84220302e-002
      4.25361395e-002 5.64129241e-002 2.51299385e-002 4.38859046e-001
      9.14592892e-002 1.20675623e-001 2.49217488e-002 1.02972090e-001
      1.21330936e-002 9.75558721e-003 6.09846339e-002 3.38779837e-002
      4.89840567e-001 1.11291837e-002 4.46905382e-003 7.61630072e-005
      1.14232758e-002 1.44376513e-002 1.10323131e-002 7.95717910e-002
      4.30105813e-002 4.89840567e-001 1.12032853e-002 1.96926630e-005
      6.58095905e-006 1.47857359e-002 7.92831331e-002 1.81507058e-002
      1.72973443e-002 1.19021302e-002 4.89840567e-001 1.26301385e-002
      3.97824943e-002 1.53178861e-002 7.96222240e-002 3.61886807e-002
      5.94137888e-003 1.70393866e-002 1.46081168e-002 4.89840567e-001
      1.14187626e-002 4.94822375e-002 1.57766044e-002 3.23099419e-002
      2.08290890e-002 1.76709483e-003 3.17812455e-003 1.10121369e-002
      3.07846636e-001 9.64962970e-003 9.45854411e-002 3.28275152e-002
      4.99084257e-002 1.97932005e-001 7.14449659e-002 2.35019792e-002
      3.77593637e-002 3.07846636e-001 9.41362698e-003 1.32324353e-001
      4.35569063e-002 1.50590718e-001 6.44558743e-002 2.21951958e-003
      7.53021054e-003 4.09630798e-002 3.07846636e-001 6.63221115e-003
      2.43009999e-001 1.77772462e-001 1.28906444e-001 3.07846636e-001
      1.28553882e-001 6.74256757e-002 1.27171516e-001 3.07846636e-001
      6.18450157e-003 3.07846636e-001 2.85364658e-001 3.07846636e-001
      1.56675488e-001 1.19824417e-001 5.93699999e-002 6.90598711e-002
      2.59497374e-001 1.67804845e-002 5.74962534e-002 6.81242421e-002
      1.44514471e-001 2.59497374e-001 2.05226526e-001 1.38062149e-001
      5.03613055e-002 2.59497374e-001 3.01693436e-002 6.74171671e-002
      1.06096134e-001 2.59497374e-001 2.59497374e-001 2.28706956e-001
      1.44499764e-001 1.09630637e-001 1.16607308e-001 4.24837181e-003
      1.79355398e-001 1.52028546e-001 2.59497374e-001 2.59497374e-001
      2.59497374e-001 1.99935347e-001 6.84673637e-002 7.08414614e-002
      9.56283696e-003 1.22113682e-001 1.25825733e-001 2.59497374e-001
      3.04882079e-001 1.39237851e-001 1.86288998e-001 1.15218936e-002
      3.04882079e-001 1.15623651e-002 7.25143254e-002 5.10481223e-002
      3.04882079e-001 1.84331268e-001 3.90663557e-002 2.08157405e-001
      2.46297475e-002 3.04882079e-001 6.32620649e-003 7.48492554e-002
      3.66885066e-002 1.58697277e-001 3.04882079e-001 1.92391381e-001
      2.45995402e-001 1.00524593e-002 6.66417405e-002 3.04566952e-003
      3.84226814e-002 3.88173237e-002 3.04882079e-001 2.21783727e-001
      5.19001745e-002 2.44144693e-001 2.57744770e-002 1.52497992e-001
      6.64457446e-004 1.28564527e-002 1.72242597e-002 1.56417593e-001</_>
    <_>
      6.29202798e-002 1.31483283e-002 1.88469980e-002 3.81543214e-004
      2.30638646e-002 0. 1.02038619e-004 3.40996012e-005 3.00428215e-002
      3.10717851e-001 1.05870865e-001 4.76657189e-002 1.91094019e-004
      1.70934107e-002 0. 1.30430320e-002 4.35876334e-003 1.42000720e-001
      2.90759951e-001 5.52666932e-002 1.13824740e-001 3.74353607e-003
      2.64925301e-001 4.51518601e-004 1.06057383e-001 3.85282859e-002
      2.10691854e-001 3.68458241e-001 3.68458241e-001 3.57538402e-001
      2.23727175e-003 2.28247002e-001 7.49290502e-003 1.95866510e-001
      7.88079277e-002 3.68458241e-001 1.97743192e-001 9.89231616e-002
      3.90436575e-002 0. 2.51142178e-002 7.45506817e-003 4.61575799e-002
      2.76339389e-002 1.34030670e-001 6.20835088e-002 2.61612162e-002
      1.69000998e-002 0. 3.99630405e-002 9.94008966e-003 3.65587361e-002
      2.84957830e-002 6.95971698e-002 3.02899748e-001 3.02899748e-001
      3.02899748e-001 2.09914497e-003 3.02899748e-001 6.12214543e-002
      2.63783962e-001 1.77771360e-001 3.02899748e-001 1.51087806e-001
      1.53747499e-001 2.31419563e-001 3.22944857e-003 3.02899748e-001
      8.91130492e-002 2.72843540e-001 1.75899148e-001 2.06688792e-001
      5.16232587e-002 0. 0. 0. 1.15869112e-001 1.99438836e-002
      8.89953040e-003 3.56353261e-002 8.91187862e-002 0. 0. 0. 0. 0. 0.
      0. 0. 0. 1.99925974e-001 8.58244300e-002 1.83294490e-001
      7.90656172e-003 6.54637158e-001 2.13929236e-001 4.31414902e-001
      2.13811874e-001 4.24899042e-001 0. 0. 0. 0. 0. 0. 0. 0. 0.
      2.70379573e-001 3.33194546e-002 7.76182860e-002 3.21489829e-003
      2.43350536e-001 2.06640479e-003 1.27625033e-001 4.67577763e-002
      2.41655841e-001 3.55647534e-001 2.35557392e-001 2.93836802e-001
      2.24917335e-003 3.48614156e-001 1.72249712e-002 2.05265686e-001
      8.47258344e-002 3.55647534e-001 4.62191850e-002 5.50209684e-003
      1.36087034e-002 1.27100677e-003 1.30536435e-002 1.53826026e-003
      4.37326496e-003 3.30523797e-003 4.08300273e-002 2.46859133e-001
      4.66365032e-002 1.20683439e-001 1.33420515e-003 2.81024009e-001
      7.57789006e-003 1.69372465e-002 1.19789764e-002 2.29762554e-001
      2.16795817e-001 1.18270263e-001 1.58035800e-001 2.87718931e-003
      4.38840061e-001 3.37591171e-002 8.76642615e-002 5.70401102e-002
      2.00682700e-001 3.19983028e-002 5.10628447e-002 9.10687894e-002
      4.56066616e-003 4.38840061e-001 4.37756740e-002 9.90655720e-002
      5.33377677e-002 4.81263995e-002 7.63451383e-002 2.08385978e-002
      5.10531142e-002 2.24695932e-002 4.38840061e-001 1.45269437e-002
      3.22865173e-002 2.22963206e-002 7.15564489e-002 1.48730695e-001
      4.83123139e-002 2.87051555e-002 5.22931479e-002 4.38840061e-001
      3.26319411e-002 8.15927237e-002 2.43222304e-002 7.45724440e-002
      1.16930315e-002 9.68772452e-003 2.06899885e-002 2.74922373e-003
      3.71092469e-001 2.21123695e-002 4.60738093e-002 1.37738967e-002
      2.60637794e-002 9.33450588e-004 0. 0. 0. 2.53387028e-004 0. 0.
      3.61430022e-004 1.00834284e-003 3.71092469e-001 2.63638198e-001
      2.73077320e-002 4.24536131e-002 3.71092469e-001 3.45427357e-002
      1.42309189e-001 1.58148587e-001 3.71092469e-001 2.77417928e-001
      1.41701281e-001 5.71452305e-002 1.25898432e-003 1.71913788e-001
      1.79208617e-003 1.12998985e-001 2.72277266e-001 3.25618505e-001
      7.99263865e-002 4.54227738e-002 1.15553237e-001 1.97386369e-003
      8.76200125e-002 8.57302733e-003 1.44541624e-003 1.66162255e-003
      6.16668053e-002 3.16867977e-001 2.83903778e-001 3.16867977e-001
      1.08355680e-003 1.49028227e-001 1.31393820e-002 2.26403158e-002
      1.41104851e-002 3.16867977e-001 1.76044926e-001 5.51848523e-002
      1.39055669e-001 1.92824146e-003 1.98592842e-001 2.06701141e-002
      1.16103073e-003 1.87689508e-003 1.59473673e-001 3.16867977e-001
      3.16867977e-001 3.16867977e-001 1.08163047e-003 1.92896888e-001
      2.73646247e-002 1.48733798e-002 8.55951756e-003 3.16867977e-001
      2.67532200e-001 1.68679580e-001 2.02004224e-001 3.45658213e-002
      2.67532200e-001 2.64571253e-002 8.47976059e-002 7.48804957e-002
      2.40534365e-001 2.67532200e-001 1.44158483e-001 8.84051919e-002
      7.58307949e-002 2.67532200e-001 7.10395426e-002 1.53985605e-001
      1.12701222e-001 2.67532200e-001 2.67532200e-001 2.46713802e-001
      1.70816839e-001 1.38767119e-002 5.35486713e-002 1.87338386e-002
      4.85152453e-002 5.05794063e-002 2.67532200e-001 2.67532200e-001
      1.12522461e-001 5.35818487e-002 2.35327948e-002 8.08209330e-002
      4.31474708e-002 6.03137352e-002 9.52026919e-002 2.67532200e-001
      2.80917019e-001 2.80917019e-001 5.69830574e-002 2.56851632e-002
      2.34211072e-001 3.12155578e-002 1.08034305e-001 1.25250861e-001
      2.80917019e-001 2.80917019e-001 2.27488205e-001 1.11647055e-001
      1.65748247e-003 2.18396485e-001 1.54551817e-003 1.15802303e-001
      1.73266813e-001 2.80917019e-001 2.80917019e-001 2.09245205e-001
      4.78225015e-002 7.09408848e-003 5.09321988e-002 1.69327892e-002
      3.30766812e-002 5.38342781e-002 2.80917019e-001 2.08251074e-001
      1.99330091e-001 8.90070498e-002 1.63203280e-003 1.24432065e-001
      8.76891485e-004 4.62762900e-002 3.75174098e-002 1.98228076e-001</_>
    <_>
      1.92613807e-002 4.93517509e-005 1.47679268e-004 0. 1.41550740e-003
      6.70133508e-004 6.65140687e-005 3.14206787e-004 2.42346991e-002
      1.20619603e-001 1.85835063e-002 0. 0. 1.15147501e-003
      2.68053351e-004 2.66056231e-005 2.01454805e-003 8.46837685e-002
      2.50609547e-001 2.55871177e-001 2.15971708e-001 1.24853675e-003
      2.42328092e-001 4.02079942e-003 1.04452364e-001 5.46719097e-002
      1.99001253e-001 4.02877390e-001 4.02877390e-001 3.81043941e-001 0.
      1.46363601e-001 1.22043882e-002 1.63322449e-001 7.35677779e-002
      4.02877390e-001 9.88588035e-002 1.63165368e-002 2.68108328e-004 0.
      6.32611336e-003 0. 0. 7.32226344e-003 8.24853033e-002
      2.15372927e-002 1.53026544e-003 4.26495710e-004 0. 8.35758075e-003
      0. 0. 5.49169723e-003 3.60771641e-002 3.49725008e-001
      1.76160946e-001 1.00661814e-001 2.70613440e-004 1.67081386e-001
      7.90007859e-002 3.49725008e-001 1.94995120e-001 3.49725008e-001
      2.59868175e-001 8.86345562e-003 1.60699442e-003 3.60817852e-004
      3.49725008e-001 1.27675459e-001 3.49725008e-001 2.15860680e-001
      3.49725008e-001 1.18709763e-003 4.91405022e-004 1.47046859e-003 0.
      2.46833861e-002 0. 0. 0. 1.18709763e-003 0. 0. 0. 0. 0. 0. 0. 0.
      0. 2.37539083e-001 2.06189090e-003 6.16994686e-003 9.81643097e-004
      4.67142433e-001 4.67142433e-001 4.67142433e-001 4.53099757e-001
      2.79796183e-001 0. 0. 0. 0. 0. 0. 0. 0. 0. 2.15429738e-001
      1.63048983e-001 1.42789885e-001 2.71549309e-003 2.50884861e-001
      2.19470146e-003 1.92138210e-001 1.00010186e-001 1.70550242e-001
      3.27254921e-001 3.27254921e-001 3.27254921e-001 2.41773250e-003
      2.10267067e-001 7.66318059e-003 2.47100934e-001 1.17713928e-001
      3.27254921e-001 7.78202936e-002 1.03092436e-002 1.30442958e-002
      6.33990159e-003 5.16479649e-002 3.28771444e-003 7.79443085e-002
      4.15748283e-002 7.68154413e-002 2.46065855e-001 7.08361939e-002
      1.18070133e-001 1.02011012e-002 2.21721321e-001 3.31551675e-003
      8.98558423e-002 4.62182537e-002 2.34651104e-001 3.78348082e-001
      7.55275413e-002 8.47129822e-002 2.57159071e-003 3.52449775e-001
      4.21272293e-002 1.83947086e-001 9.43295136e-002 3.78348082e-001
      9.85724851e-002 1.61500485e-003 2.73593527e-004 2.69712205e-003
      3.78348082e-001 7.99357370e-002 1.88744485e-001 1.02442041e-001
      1.26068130e-001 7.55539909e-002 1.98550206e-002 3.35128196e-002
      9.77061410e-003 3.78348082e-001 1.26127321e-002 3.18407826e-002
      2.15478558e-002 7.53174946e-002 4.69385721e-002 1.55808525e-002
      3.48961027e-003 1.34829916e-002 3.78348082e-001 2.52457429e-002
      2.73278896e-002 3.69153544e-002 2.68354490e-002 3.04896608e-002
      2.36868698e-004 3.42413492e-004 2.49637454e-003 4.97140229e-001
      1.17413007e-001 1.30618215e-001 7.68127218e-002 3.72315384e-002
      1.70902140e-003 2.04066509e-005 0. 0. 1.25939958e-003 0. 0. 0.
      1.41792535e-003 3.98709118e-001 2.21828967e-001 7.27390945e-002
      2.18418576e-002 4.97140229e-001 4.42811698e-002 1.10525861e-001
      1.37951344e-001 2.42265657e-001 2.26698428e-001 1.00533523e-001
      4.13266644e-002 5.51403826e-003 5.34220301e-002 2.46621366e-003
      1.85892880e-001 1.06197044e-001 2.09489346e-001 3.84918414e-002
      5.30749299e-002 5.95844872e-002 4.15091310e-003 2.79895552e-002
      1.81808975e-003 9.78724798e-004 2.50541046e-003 2.89656483e-002
      3.46315116e-001 1.74243376e-001 1.06668428e-001 5.38061792e-003
      1.42090946e-001 1.73480355e-003 1.49708614e-002 3.43745109e-003
      2.12557286e-001 1.73975900e-001 1.63353592e-001 2.05492094e-001
      1.26752898e-003 2.59868711e-001 6.67878543e-004 1.02294490e-001
      3.83854173e-002 1.33361921e-001 3.46315116e-001 3.46315116e-001
      3.46315116e-001 1.02314178e-003 2.27151453e-001 1.93296830e-004
      1.70337975e-001 5.42491823e-002 3.46315116e-001 1.73640683e-001
      9.30557922e-002 2.11792663e-002 1.10356109e-002 3.02272916e-001
      1.16113583e-002 3.26788388e-002 4.15276177e-002 1.24022648e-001
      2.74971157e-001 1.35201231e-001 2.11245641e-002 2.14611441e-002
      3.02272916e-001 2.77019367e-002 3.35726701e-002 1.09251492e-001
      1.85722917e-001 3.02272916e-001 2.59751707e-001 1.62612051e-001
      7.01650744e-003 1.71839952e-001 2.33833063e-002 8.95948187e-002
      5.64841293e-002 3.02272916e-001 3.02272916e-001 1.71811417e-001
      6.24631234e-002 1.44721661e-002 2.40404934e-001 5.88279068e-002
      7.99465105e-002 1.06884599e-001 3.02272916e-001 2.83468187e-001
      2.34846339e-001 9.65004861e-002 8.62953346e-003 2.83468187e-001
      1.23848394e-002 8.27430114e-002 1.07938163e-001 2.83468187e-001
      1.62000850e-001 1.23111837e-001 1.07307322e-001 3.07017937e-003
      1.77334249e-001 3.70676396e-003 1.49539009e-001 8.49946588e-002
      1.51899785e-001 2.83468187e-001 2.40025282e-001 1.39188975e-001
      5.52068232e-003 1.22600988e-001 2.37599984e-002 6.89316615e-002
      8.45757201e-002 2.83468187e-001 2.55188942e-001 1.66572601e-001
      2.10383788e-001 2.57811113e-003 2.31211662e-001 4.46655089e-003
      1.12261087e-001 6.36749715e-002 2.51738727e-001</_>
    <_>
      4.93132137e-002 3.20471288e-003 0. 8.26420076e-003 4.21138406e-002
      2.00428389e-004 1.22082897e-003 2.29795580e-004 3.60777751e-002
      2.87463665e-001 8.67333263e-002 6.02881797e-002 1.10189328e-002
      4.88054343e-002 0. 1.70647129e-002 1.10439761e-002 1.74560323e-001
      2.47410282e-001 8.46886914e-003 1.27980055e-003 5.22644892e-002
      2.70300567e-001 1.60673214e-003 4.43890393e-002 1.56610031e-002
      1.57713577e-001 3.15161854e-001 3.15161854e-001 3.15161854e-001
      6.73175305e-002 3.15161854e-001 9.57691576e-003 3.15161854e-001
      3.15161854e-001 3.15161854e-001 1.55332923e-001 7.19810203e-002
      7.07270205e-002 9.02207510e-004 3.21697555e-002 5.07572526e-003
      4.49262038e-002 3.23144831e-002 1.36265770e-001 5.57703525e-002
      2.07127742e-002 2.82242987e-002 0. 4.49636020e-002 6.76763337e-003
      3.51250172e-002 3.08290794e-002 7.46241882e-002 2.87687272e-001
      2.87687272e-001 2.87687272e-001 6.24923827e-003 2.87687272e-001
      6.04649447e-002 2.87687272e-001 2.87687272e-001 2.87687272e-001
      1.28796473e-001 1.65678382e-001 2.31807724e-001 1.10926456e-003
      2.87687272e-001 9.44476500e-002 2.61972427e-001 1.84660137e-001
      2.25243106e-001 5.22804707e-002 0. 0. 0. 1.25665963e-001
      1.34055484e-002 6.62138639e-003 3.76169272e-002 9.37587097e-002 0.
      0. 0. 0. 0. 0. 0. 0. 0. 2.24109247e-001 9.96041298e-002
      1.76224828e-001 2.36764154e-003 6.64457917e-001 2.42287517e-001
      3.85988563e-001 2.25701481e-001 4.16016400e-001 0. 0. 0. 0. 0. 0.
      0. 0. 0. 2.34619796e-001 6.28279103e-003 2.82575539e-003
      4.76112254e-002 2.29621798e-001 2.83658598e-003 5.89261241e-002
      2.15692222e-002 1.42142862e-001 3.20850283e-001 2.55340964e-001
      2.94425666e-001 5.50172403e-002 3.20850283e-001 2.45745163e-002
      3.20850283e-001 3.20850283e-001 3.20850283e-001 4.00565080e-002
      3.74898687e-003 2.85104592e-003 5.50642423e-003 2.10238397e-002
      2.80992500e-003 7.25216186e-003 4.85767750e-003 3.17211635e-002
      2.03070924e-001 9.68336836e-002 7.86353499e-002 2.31856536e-002
      3.20850283e-001 7.08228350e-003 4.84963786e-003 1.32342642e-002
      1.69107974e-001 1.15735456e-001 1.20062798e-001 1.40270919e-001
      3.58582521e-003 4.56793368e-001 3.59898135e-002 1.21905275e-001
      1.13513082e-001 1.37061432e-001 2.64695119e-002 6.11496903e-002
      8.13058317e-002 2.46013980e-003 4.56793368e-001 4.96482365e-002
      9.51693282e-002 5.48058003e-002 5.15823960e-002 4.28256355e-002
      3.26030999e-002 3.97867374e-002 9.18508135e-003 4.56793368e-001
      1.10658510e-002 1.01732062e-002 3.08634457e-003 4.36445810e-002
      1.19811460e-001 3.95047255e-002 2.24438868e-002 5.93834417e-003
      4.56793368e-001 2.30059735e-002 5.92951402e-002 6.95266109e-003
      9.98759046e-002 1.37298414e-002 1.13364775e-002 2.00570878e-002
      1.03530334e-003 3.77869725e-001 2.70981863e-002 4.21573259e-002
      1.45628927e-002 2.49260850e-002 8.26009316e-004 0. 0. 0.
      1.40503063e-004 3.16520163e-004 2.80989771e-004 4.21900695e-005
      8.26009316e-004 3.77869725e-001 2.56758511e-001 2.64669172e-002
      2.43778573e-003 3.77869725e-001 2.43402459e-002 1.39609471e-001
      1.61127537e-001 3.77869725e-001 2.80912399e-001 1.45703852e-001
      6.39358833e-002 0. 1.58387259e-001 4.46088333e-003 1.28875747e-001
      2.78550833e-001 2.91210920e-001 1.27075627e-001 4.69922787e-003
      2.11109221e-003 8.81004110e-002 1.18684247e-001 5.13891503e-003
      4.10155440e-003 3.25199147e-003 6.18124045e-002 2.90145785e-001
      2.90145785e-001 1.79787144e-001 2.27541327e-001 2.90145785e-001
      9.09740292e-003 4.54075336e-002 5.00243455e-002 2.90145785e-001
      2.11938843e-001 9.47411917e-003 2.13688589e-003 1.19784154e-001
      1.79540604e-001 8.53311177e-003 2.51131179e-003 3.05287470e-003
      7.65285417e-002 2.90145785e-001 2.62623161e-001 1.30906120e-001
      2.81881243e-001 2.90145785e-001 1.24237668e-002 5.85763603e-002
      1.02350473e-001 2.90145785e-001 1.90269560e-001 2.09008425e-001
      1.56006008e-001 5.32315671e-002 2.96843648e-001 7.16330297e-003
      3.84473503e-002 5.79612032e-002 2.04487771e-001 2.96843648e-001
      1.87767506e-001 7.69012794e-002 1.37901772e-002 2.96843648e-001
      2.30882205e-002 9.69421566e-002 1.10972337e-001 2.96843648e-001
      2.53337532e-001 1.90168440e-001 1.03350244e-001 5.89037873e-002
      9.86350477e-002 2.13065650e-003 3.28631811e-002 9.42380205e-002
      2.51697510e-001 2.96843648e-001 1.63412601e-001 4.40720581e-002
      1.42617822e-002 7.90917128e-002 2.96489894e-003 2.05620378e-002
      1.33756220e-001 2.96843648e-001 2.79252768e-001 2.79252768e-001
      5.76095097e-002 1.24948157e-003 2.44495392e-001 1.18081234e-002
      1.03076801e-001 1.34345785e-001 2.79252768e-001 2.79252768e-001
      2.20186591e-001 1.25997052e-001 1.37715324e-004 2.03733057e-001
      2.97712511e-003 1.30713716e-001 1.68941781e-001 2.72464514e-001
      2.79252768e-001 2.44095802e-001 4.94972207e-002 4.64563956e-004
      3.50048281e-002 1.78982096e-003 2.93145124e-002 6.57156184e-002
      2.79252768e-001 2.13970497e-001 1.90245420e-001 1.00863494e-001
      8.26291507e-004 1.16406538e-001 1.05058774e-003 5.21609634e-002
      3.24811414e-002 1.83711678e-001</_>
    <_>
      6.97517693e-002 3.85475308e-002 5.99023402e-002 1.69971790e-002
      3.12972814e-002 0. 1.69926585e-004 4.07440774e-003 7.49550238e-002
      2.97616273e-001 1.33631632e-001 1.74005896e-001 1.60202254e-002
      1.48716932e-002 0. 1.33516109e-002 1.49372490e-002 2.96552062e-001
      1.89699858e-001 9.62292105e-002 1.93839714e-001 8.90708268e-002
      3.17029923e-001 1.17184501e-002 4.93214652e-002 2.41284333e-002
      1.83585271e-001 3.17029923e-001 3.17029923e-001 3.17029923e-001
      9.42795277e-002 3.17029923e-001 2.60423385e-002 8.76906738e-002
      8.08874667e-002 3.17029923e-001 2.98866421e-001 9.12752226e-002
      1.07924528e-001 1.62036419e-002 3.00451480e-002 3.68334837e-002
      9.74115953e-002 6.72489405e-002 2.92877555e-001 8.00221413e-002
      1.18007734e-002 1.61460638e-002 1.33385537e-002 7.94136599e-002
      5.05269989e-002 9.49366540e-002 6.38134256e-002 8.18625763e-002
      3.00518990e-001 3.00518990e-001 1.67175964e-001 5.23393899e-002
      3.00518990e-001 1.11267686e-001 2.06891075e-001 2.78076798e-001
      3.00518990e-001 1.02281339e-001 6.69471994e-002 3.86552773e-002
      3.50983404e-002 3.00518990e-001 1.14335328e-001 2.02828154e-001
      2.37297833e-001 8.25276896e-002 4.29150425e-002 2.97455061e-002
      1.19513184e-001 3.34914848e-002 2.14094818e-001 1.87803395e-002
      2.47844029e-002 5.72719797e-003 4.09425609e-002 1.00498788e-001
      3.87786552e-002 1.58856556e-001 4.51749042e-002 4.44923192e-001
      2.17606686e-002 4.18808125e-002 9.05523601e-004 9.77051854e-002
      2.49087885e-002 3.36940363e-002 1.35926291e-001 8.20180252e-002
      5.43944776e-001 2.54633911e-002 4.13738042e-002 1.89824980e-002
      2.39271652e-002 6.01433367e-002 4.41799015e-002 1.80222139e-001
      1.08824760e-001 5.43944776e-001 2.89584752e-002 5.57203367e-002
      1.50920590e-004 5.89404106e-002 5.20643182e-002 1.84556209e-002
      4.78490703e-002 3.43498401e-002 4.65184450e-001 1.22421021e-002
      4.56925556e-002 7.13892234e-003 4.10637334e-002 2.69485205e-001
      6.49367198e-002 5.32150380e-002 4.59191687e-002 4.65184450e-001
      2.17819661e-002 6.44055456e-002 2.76530981e-002 1.64795697e-001
      3.44511657e-003 5.46097383e-003 3.51005904e-002 8.99221003e-003
      4.65184450e-001 6.46830304e-003 7.83517770e-003 7.04046179e-005
      1.29310424e-002 3.43740848e-003 6.36081817e-003 4.84478138e-002
      1.11413728e-002 4.65184450e-001 2.31030025e-002 1.19181499e-002
      7.26424332e-005 1.10808881e-002 2.13593662e-001 8.85451511e-002
      2.28156466e-002 2.52140295e-002 4.02484089e-001 5.08624576e-002
      4.77038398e-002 9.76574123e-002 1.09595448e-001 1.84234604e-002
      2.25702506e-002 7.37838121e-003 1.55367963e-002 4.02484089e-001
      4.10697311e-002 3.87052335e-002 7.47184530e-002 8.04736465e-003
      1.31069068e-002 1.54651934e-002 2.27674711e-002 1.18073523e-002
      4.02484089e-001 1.31747544e-001 5.29382080e-002 3.26600187e-002
      5.03031611e-002 3.38974088e-001 1.11153275e-001 5.02650365e-002
      1.91594381e-002 4.02484089e-001 1.68348789e-001 8.29765946e-002
      5.45928627e-002 2.52614796e-001 9.25372238e-004 1.92452443e-003
      7.95593485e-003 1.45373642e-002 4.55015570e-001 2.44187075e-003
      4.17752657e-003 3.73373926e-003 1.18824409e-003 3.09172639e-004
      2.53869127e-003 1.05260964e-002 1.64748803e-002 4.55015570e-001
      2.56543909e-003 3.99338035e-003 0. 3.52984614e-004 2.81428605e-001
      9.87071320e-002 1.19641207e-001 2.30494570e-002 4.55015570e-001
      1.91174187e-002 1.10820588e-002 7.47664087e-003 1.61553845e-001
      6.28771186e-002 7.46582001e-002 1.57012984e-001 1.76866632e-002
      4.55015570e-001 3.68551281e-003 3.62127845e-004 1.73910827e-004
      4.03447002e-002 6.92100152e-002 3.74372974e-002 2.32429653e-001
      1.44048352e-002 5.06430387e-001 5.33999549e-003 5.32280537e-004
      1.77879148e-004 1.61724091e-001 5.82588315e-002 5.05198836e-002
      3.14950645e-001 1.18843354e-002 5.06430387e-001 4.53879610e-002
      8.23644176e-003 1.52649169e-004 1.27196878e-001 8.45532492e-002
      2.60868873e-002 1.28384337e-001 6.83774846e-003 3.17689776e-001
      5.44673472e-004 8.45733623e-004 2.82629422e-004 1.51744425e-001
      7.13358372e-002 3.58056501e-002 1.72869503e-001 4.47907671e-003
      2.68984884e-001 5.62991574e-003 3.65198124e-003 1.80498362e-004
      1.21729225e-001 5.76957092e-002 3.30690593e-002 7.96203241e-002
      9.80578642e-003 3.12173337e-001 2.22283185e-001 1.73663571e-001
      8.54970217e-002 1.22689001e-001 3.12173337e-001 2.10979342e-001
      1.42954350e-001 2.21154336e-002 3.12173337e-001 2.67710418e-001
      2.85276145e-001 1.48662031e-001 3.12173337e-001 5.38756996e-002
      9.63675696e-003 3.82921733e-002 3.10161430e-003 5.33589162e-002
      5.87655865e-002 8.36542696e-002 3.05941533e-002 6.00491166e-002
      3.12173337e-001 4.19879369e-002 5.94819374e-002 6.58410415e-003
      3.09792049e-002 6.79744631e-002 1.48973569e-001 5.79642579e-002
      3.12173337e-001 3.04704905e-001 2.62376636e-001 3.04704905e-001
      1.87516231e-002 3.04704905e-001 3.06097772e-002 4.52354625e-002
      2.51223966e-002 3.04704905e-001 1.76908985e-001 2.36435533e-001
      3.04704905e-001 1.29216621e-002 3.04704905e-001 7.23454356e-003
      3.02616484e-003 1.91212294e-003 1.23594925e-001 3.04704905e-001
      9.86813381e-002 1.40796602e-001 1.80941180e-003 6.70789741e-003
      6.88587967e-003 2.61062253e-002 1.13805626e-002 2.91526914e-001
      9.29253921e-002 1.07723705e-001 1.74538776e-001 2.11232895e-004
      2.11856365e-002 3.28572723e-003 2.75301700e-003 2.61894101e-003
      6.99451864e-002</_>
    <_>
      5.96964061e-002 3.32478643e-003 1.28872739e-002 1.59475319e-002
      1.84658654e-002 0. 8.24957533e-005 2.75686325e-005 5.78961410e-002
      2.03164712e-001 3.77377272e-002 1.10098764e-001 1.18074398e-002
      7.31372833e-003 0. 2.81114466e-002 1.36348829e-002 1.90841734e-001
      3.12666655e-001 9.61943045e-002 4.63173203e-002 1.12331949e-001
      3.12666655e-001 2.20537018e-002 2.13459313e-001 9.69731733e-002
      2.81074464e-001 3.12666655e-001 2.77683437e-001 3.12666655e-001
      9.90707427e-002 2.37012938e-001 1.74229480e-002 2.65520215e-001
      1.88669771e-001 3.12666655e-001 1.93207860e-001 2.53340229e-002
      7.27728531e-002 1.14310256e-004 2.92899949e-003 2.88275100e-004
      1.23028830e-001 5.64092174e-002 1.69961393e-001 4.33628447e-002
      3.03762220e-003 1.48657733e-003 1.18834316e-003 3.88364010e-002
      1.72965019e-003 8.90066326e-002 4.08601984e-002 3.48835103e-002
      3.14468473e-001 2.11346492e-001 3.14468473e-001 4.28880677e-002
      3.14468473e-001 4.31852005e-002 3.14468473e-001 3.10031891e-001
      3.14468473e-001 1.04613289e-001 8.37092940e-003 2.27336194e-002
      3.24039645e-002 3.14468473e-001 5.47308251e-002 3.14468473e-001
      1.89205751e-001 6.37541711e-002 5.21562174e-002 6.81489483e-002
      5.68227060e-002 3.14305387e-002 2.26116866e-001 6.20703539e-003
      3.56565081e-002 1.00556454e-002 3.88062634e-002 9.72286612e-002
      8.70199278e-002 7.35691190e-002 4.23541889e-002 4.31969345e-001
      1.35887368e-002 8.09882209e-002 1.62783656e-002 8.93165916e-002
      3.52750383e-002 6.37718439e-002 7.32416138e-002 7.48166367e-002
      5.62595010e-001 2.04980280e-002 7.33155832e-002 1.73190944e-002
      2.60758195e-002 6.44103587e-002 8.41293335e-002 9.65014622e-002
      9.96526107e-002 5.62595010e-001 3.22829746e-002 1.06909446e-001
      1.99229624e-002 5.93815744e-002 1.61467671e-001 4.18174490e-002
      1.00119766e-002 5.05765192e-002 4.11669821e-001 2.04883367e-002
      1.52669996e-001 5.61689772e-002 9.98419672e-002 3.57561469e-001
      9.82546881e-002 1.00479193e-001 5.35973683e-002 4.11669821e-001
      1.63562614e-002 1.39772058e-001 8.33081454e-002 2.60867178e-001
      1.65862031e-002 6.76944735e-004 6.23165211e-003 2.63593551e-002
      4.11669821e-001 1.22015048e-002 2.92900875e-002 7.67401978e-003
      9.23197530e-003 3.35135572e-002 1.07574568e-003 4.33342019e-003
      2.53648572e-002 4.11669821e-001 1.00128120e-002 2.88616586e-002
      9.16162878e-003 2.09029838e-002 1.80443063e-001 7.55603611e-002
      1.00162640e-001 2.77543124e-002 4.52362299e-001 2.60267593e-002
      1.30018085e-001 9.02482644e-002 1.39323398e-001 1.95488241e-002
      3.39487474e-003 9.86647606e-003 1.94732156e-002 4.52362299e-001
      3.02313026e-002 1.15892693e-001 4.89242896e-002 1.04960306e-002
      3.46239619e-002 3.78632918e-004 1.00060752e-004 1.33335870e-002
      4.52362299e-001 2.30768211e-002 4.81929593e-002 3.37852277e-002
      2.42540445e-002 1.83621943e-001 5.85380271e-002 2.95519736e-002
      1.41494367e-002 4.52362299e-001 2.65599526e-002 6.30930439e-002
      5.67725897e-002 1.13746114e-001 2.87814677e-004 2.38636974e-003
      5.19137923e-003 1.01774205e-002 4.75639880e-001 5.73024666e-003
      1.21694980e-002 2.26279232e-003 2.87814677e-004 6.54321193e-005
      3.18182632e-003 6.92183804e-003 1.27033284e-002 4.75639880e-001
      5.09180455e-003 7.67628243e-003 1.41342764e-003 6.54321193e-005
      1.53590709e-001 1.18288390e-001 9.94979441e-002 1.61089990e-002
      4.75639880e-001 3.66409197e-002 5.83194010e-002 3.62165198e-002
      1.06294692e-001 6.01884536e-002 6.92081004e-002 9.08093899e-002
      1.28103420e-002 4.75639880e-001 4.54533808e-002 6.62457123e-002
      2.13306975e-002 2.93189008e-002 4.03677039e-002 2.29711179e-002
      1.28213421e-001 8.08228180e-002 4.93543595e-001 1.58923939e-002
      2.13207823e-004 6.83237016e-002 6.17329516e-002 2.46923994e-002
      1.73281021e-002 9.65276435e-002 6.37546331e-002 4.93543595e-001
      1.38556212e-002 4.23609838e-002 4.97438982e-002 3.10520213e-002
      9.70710441e-002 2.99253706e-002 1.43819004e-001 5.62798269e-002
      4.93543595e-001 5.27034560e-003 6.55593467e-004 9.03054327e-002
      1.24786712e-001 5.22172041e-002 2.17931662e-002 1.08208887e-001
      4.43129577e-002 3.59398186e-001 4.33946028e-003 2.55701412e-002
      4.84362356e-002 6.12603091e-002 7.45564997e-002 1.30515099e-002
      6.87264837e-004 1.06740808e-002 3.02439421e-001 6.13287278e-002
      2.03629524e-001 1.34432629e-001 5.88602722e-002 3.02439421e-001
      2.94375181e-001 3.82604599e-002 1.18667651e-002 3.02439421e-001
      7.92405456e-002 2.25586414e-001 2.06773713e-001 3.02439421e-001
      6.37711436e-002 1.71078518e-002 6.03308959e-004 2.85459124e-003
      1.28090516e-001 4.23282310e-002 1.43860951e-001 9.52945426e-002
      8.16073716e-002 3.02439421e-001 2.72779077e-001 3.91968619e-003
      1.26983575e-003 7.27415755e-002 5.55587783e-002 1.51607201e-001
      1.50257021e-001 3.02439421e-001 2.91468829e-001 2.91468829e-001
      1.84970468e-001 1.77355353e-002 2.91468829e-001 9.16274115e-002
      9.13165361e-002 9.26161781e-002 2.91468829e-001 1.98882923e-001
      2.79935688e-001 2.19027534e-001 1.36812283e-002 2.91468829e-001
      1.06466256e-001 8.61572772e-002 4.31460813e-002 9.22795832e-002
      2.91468829e-001 2.91468829e-001 4.77176942e-002 8.91811433e-005
      3.15088779e-002 3.40482891e-002 2.01307740e-002 3.82726006e-002
      2.73549050e-001 1.23305097e-001 1.81339189e-001 7.87368715e-002 0.
      7.87734017e-002 3.37936357e-002 6.15887716e-003 7.19101308e-003
      6.70964718e-002</_>
    <_>
      2.27617491e-002 1.81473128e-003 2.77404935e-004 0. 1.64624152e-003
      0. 4.74073866e-004 9.07318958e-004 1.66645162e-002 1.47573724e-001
      3.48396674e-002 5.66988625e-003 0. 5.63151494e-004 0. 0.
      2.30324897e-003 8.16735551e-002 2.49459386e-001 2.14144453e-001
      2.99038202e-001 6.84811454e-003 2.73836464e-001 8.27505141e-002
      3.34492326e-002 3.82016674e-002 1.29383087e-001 3.86494249e-001
      3.86494249e-001 3.86494249e-001 4.44189180e-003 2.02765062e-001
      1.08717754e-001 6.59596696e-002 1.10045701e-001 3.86494249e-001
      1.13562569e-001 3.71732675e-002 1.11667216e-002 0. 2.99216772e-004
      1.43174734e-002 1.03779202e-002 8.04111641e-003 9.56741348e-002
      3.44643258e-002 1.15655903e-002 4.46668779e-003 3.96297110e-004
      1.08887651e-003 1.95038859e-002 1.43746231e-002 6.28277194e-003
      4.65795323e-002 3.23890984e-001 3.23890984e-001 1.95128635e-001
      3.12109385e-003 2.09527045e-001 1.25346005e-001 3.23890984e-001
      1.72013223e-001 3.23890984e-001 2.11329743e-001 7.22215772e-002
      3.69699858e-002 7.15112081e-003 3.23890984e-001 1.85854688e-001
      3.23890984e-001 1.94083944e-001 2.97434121e-001 3.27404141e-002
      1.74753033e-002 0. 2.77202856e-003 1.86522566e-002 5.36830071e-003
      1.15110343e-002 6.76893513e-004 2.19076592e-002 9.41783488e-002
      4.16788124e-002 0. 2.96357763e-003 4.98761460e-002 1.97170046e-003
      4.16708961e-002 1.74595785e-004 6.76479861e-002 1.20498776e-001
      1.57233849e-001 4.02955227e-002 6.49724156e-002 5.08043885e-001
      6.62158281e-002 1.96092084e-001 5.08415662e-002 6.01110049e-002
      3.29341739e-001 3.84674281e-001 9.33548287e-002 7.89907202e-002
      5.08043885e-001 1.59285888e-002 2.49424458e-001 8.46793409e-004
      1.70088574e-001 8.80966187e-002 8.71383995e-002 1.19887464e-001
      4.46611131e-003 3.77648443e-001 6.30387366e-002 4.30577658e-002
      2.95357667e-002 3.20043601e-002 3.77648443e-001 2.18313262e-001
      2.50314593e-001 3.85010522e-003 3.77648443e-001 8.02974924e-002
      7.57680684e-002 7.96835646e-002 2.83965170e-001 2.47792229e-002
      2.14513913e-002 2.61581708e-002 7.31631136e-003 3.77648443e-001
      5.19419238e-002 3.11205201e-002 1.24661252e-002 7.79473409e-003
      8.70221779e-002 5.60287535e-002 8.57559741e-002 7.19569204e-003
      3.77648443e-001 5.85147142e-002 4.87278104e-002 3.16113681e-002
      7.44750127e-002 3.23276728e-001 1.22333042e-001 1.28084943e-001
      5.14213881e-003 3.68801564e-001 7.70857856e-002 1.66601479e-001
      7.88621381e-002 2.99351901e-001 7.37807453e-002 1.81014780e-002
      1.43172843e-002 7.18259392e-003 3.89497787e-001 1.47714689e-001
      2.12118030e-001 7.33967796e-002 8.88259038e-002 6.19967803e-002
      3.08941286e-002 4.93507795e-002 8.47851858e-003 3.89497787e-001
      7.65696913e-002 4.12423201e-002 2.02874374e-002 6.19619712e-002
      4.49106842e-002 1.91230886e-002 7.38174887e-003 1.06651578e-002
      3.89497787e-001 1.68173656e-001 4.67416383e-002 2.47948151e-002
      2.57386025e-002 1.38170049e-002 2.57637817e-002 9.77037102e-003
      1.89603716e-002 4.70865548e-001 5.27202263e-002 4.80953902e-002
      1.27253681e-002 5.82058169e-003 3.23742367e-002 6.13133684e-002
      2.08881386e-002 2.39303764e-002 4.70865548e-001 2.12187804e-002
      4.37408984e-002 2.36387335e-004 1.23435669e-002 6.85141012e-002
      4.72563170e-002 4.05229181e-002 1.39079094e-002 4.70865548e-001
      1.04535073e-001 4.55114581e-002 2.57123448e-002 3.88673469e-002
      3.41025181e-002 3.86812426e-002 6.57654330e-002 3.63498926e-002
      4.70865548e-001 1.76303327e-001 1.71574786e-001 1.99524947e-002
      1.87362786e-002 9.10416245e-003 2.06440128e-002 3.32543999e-002
      9.14145634e-003 4.78562415e-001 2.90958527e-002 6.91612426e-004
      9.69669898e-004 8.86345468e-003 6.64616749e-003 2.59926636e-002
      4.50285561e-002 7.73471035e-003 4.78562415e-001 2.59522591e-002
      5.76304563e-004 9.85987368e-004 6.73731184e-003 8.21845978e-002
      7.27223381e-002 1.13260984e-001 4.97401832e-003 4.78562415e-001
      2.84907687e-002 1.16907794e-003 8.90755618e-004 8.19729716e-002
      6.23157024e-002 9.64663178e-002 1.51814908e-001 3.26347770e-003
      4.78562415e-001 2.04066541e-002 2.68281408e-004 3.01179156e-004
      6.23431616e-002 5.94219984e-003 3.14376387e-003 6.64525479e-003
      7.60017475e-003 3.37653130e-001 2.68893056e-002 8.12197402e-002
      3.56559791e-002 6.07463578e-003 2.09891081e-001 8.44403952e-002
      3.39296907e-002 9.06759501e-003 3.37653130e-001 5.60367778e-002
      1.48422152e-001 1.14647724e-001 1.32171854e-001 2.22894736e-002
      1.08525259e-002 1.84866097e-002 3.08053102e-003 3.32317144e-001
      2.03874633e-002 1.66228041e-001 7.77480230e-002 2.36428808e-002
      3.37653130e-001 1.33091509e-001 1.35754868e-001 3.25765554e-003
      3.37653130e-001 4.34707403e-002 3.02653939e-001 2.41741255e-001
      2.99130827e-001 2.80065179e-001 1.85781032e-001 1.40397176e-001
      3.60058509e-002 2.80065179e-001 4.93838005e-002 6.67459890e-002
      9.32526737e-002 1.97602138e-001 1.35196447e-001 1.54394969e-001
      1.98483005e-001 1.45060718e-001 2.80065179e-001 1.15934268e-001
      1.22478426e-001 6.85872063e-002 7.78959095e-002 2.80065179e-001
      2.40554243e-001 2.43767560e-001 3.62053029e-002 9.85530317e-002
      1.70743335e-002 7.24851489e-002 1.21739820e-001 2.80065179e-001
      2.11317912e-001 1.73109725e-001 2.15405449e-001 1.44423395e-001
      1.79521456e-001 1.74660161e-002 2.06846632e-002 5.13798371e-002
      1.64112464e-001</_>
    <_>
      8.44793767e-002 5.04908040e-002 5.80332577e-002 4.56006918e-003
      5.23114465e-002 1.69452047e-004 0. 6.17159021e-005 7.87136555e-002
      2.95165926e-001 2.31703863e-001 8.46150964e-002 3.65122175e-003
      3.67706344e-002 1.27089021e-004 3.51716764e-002 1.32979769e-002
      2.15578943e-001 2.09217742e-001 2.62112796e-001 2.95165926e-001
      1.11643508e-001 2.95165926e-001 2.74836794e-002 2.02462524e-002
      2.20717192e-002 2.39905059e-001 2.95165926e-001 2.95165926e-001
      2.95165926e-001 2.39189900e-002 2.52989382e-001 7.54889380e-003
      6.52227327e-002 4.52776216e-002 2.95165926e-001 2.42402315e-001
      1.64363816e-001 6.56075329e-002 1.56502740e-003 3.99977230e-002
      5.16019529e-004 1.05246142e-001 3.98803502e-002 1.78085759e-001
      2.61168927e-001 2.50009716e-001 1.38515040e-001 2.21088491e-002
      5.04071973e-002 1.20493611e-002 7.46362731e-002 6.67326376e-002
      2.61168927e-001 2.61168927e-001 2.61168927e-001 1.64819226e-001
      2.38345028e-003 2.61168927e-001 6.74913405e-004 1.75370380e-001
      7.99376592e-002 2.61168927e-001 2.61168927e-001 2.01462403e-001
      1.44287094e-001 1.72370952e-002 2.61168927e-001 9.02076438e-003
      1.25459492e-001 1.03506036e-001 2.61168927e-001 3.00633222e-001
      2.85390228e-001 2.67421395e-001 6.39778227e-002 1.91962525e-001
      5.89166172e-002 6.06456446e-003 2.78201420e-002 3.00633222e-001
      8.62560198e-002 7.29756728e-002 1.20498843e-001 2.58197635e-002
      2.66809404e-001 4.43989635e-002 6.43879466e-004 1.95925147e-003
      1.48851424e-001 3.00633222e-001 2.03737646e-001 2.29102924e-001
      4.73185368e-002 3.00633222e-001 4.49245498e-002 7.21460953e-003
      3.66791636e-002 3.00633222e-001 7.47522265e-002 5.11449501e-002
      9.78781655e-002 1.88691169e-002 3.00633222e-001 3.39191705e-002
      1.11437534e-004 9.90076340e-004 1.19635366e-001 8.77229944e-002
      1.57845750e-001 2.52268732e-001 1.38797566e-001 3.66123766e-001
      8.39135796e-002 2.72306129e-002 1.66231692e-002 1.20409124e-001
      2.88044125e-001 2.96518236e-001 2.41457984e-001 3.67476046e-002
      3.66123766e-001 1.87754370e-002 2.12472603e-002 2.01280266e-002
      2.30512545e-001 7.13086920e-003 4.24112752e-003 1.58140007e-002
      1.17208868e-001 3.66123766e-001 8.75577927e-002 5.02360240e-003
      2.48955272e-004 7.27823144e-003 2.32156478e-002 2.82787830e-002
      8.45967606e-002 7.23389015e-002 3.66123766e-001 2.63757873e-002
      3.71625670e-003 3.46918683e-003 3.06937769e-002 1.89712599e-001
      1.31369621e-001 8.08878541e-002 2.90016178e-002 3.27783197e-001
      2.72880960e-003 4.11055312e-002 2.47468017e-002 1.56568363e-001
      9.45504755e-002 2.02312898e-002 2.81482916e-002 1.45554785e-002
      3.27783197e-001 3.89924296e-003 2.99923569e-002 2.36269441e-002
      1.04887441e-001 6.58724010e-002 1.50341794e-001 2.56733775e-001
      1.05197914e-001 3.27783197e-001 1.70006342e-002 1.55753111e-002
      1.23918764e-002 1.04669616e-001 2.74405748e-001 3.27783197e-001
      3.11762512e-001 5.67376465e-002 3.27783197e-001 1.30988797e-002
      2.01750789e-002 9.90683585e-003 2.39333317e-001 5.85191585e-002
      1.36414859e-002 2.67126877e-002 1.11168409e-002 3.77123773e-001
      5.42370323e-003 1.31102279e-003 5.94825810e-003 5.93783557e-002
      2.02238001e-002 3.36078531e-003 1.17751872e-002 8.22270475e-003
      3.77123773e-001 3.85284727e-003 9.50049434e-006 1.32889108e-004
      2.00051032e-002 3.38400930e-001 3.77123773e-001 1.54522866e-001
      1.10304154e-001 3.77123773e-001 3.05231195e-003 3.65995592e-003
      2.15527625e-003 2.02450678e-001 1.25022694e-001 2.23159224e-001
      5.09554893e-002 1.08916409e-001 3.77123773e-001 2.79092416e-003
      7.98360197e-005 4.33374487e-004 6.75859377e-002 1.46529347e-001
      3.37364222e-003 1.60739257e-003 9.78569463e-002 4.40916389e-001
      2.76498258e-001 5.41988527e-003 2.18858034e-003 5.47993705e-002
      8.82941335e-002 3.71894278e-002 9.76962298e-002 7.80376419e-002
      4.40916389e-001 7.75477737e-002 1.10977525e-002 1.35726910e-002
      7.99046680e-002 2.52817065e-001 3.50680202e-003 1.55859743e-004
      2.37453263e-002 4.40916389e-001 2.55361259e-001 5.39425761e-003
      2.85230880e-003 1.17710836e-001 1.10618949e-001 2.31087068e-003
      4.21061832e-003 2.01485585e-002 3.17921847e-001 5.23628108e-002
      8.69203452e-003 9.30876657e-003 6.37697726e-002 1.42672092e-001
      1.96782619e-001 2.89507955e-001 5.44681735e-002 2.89507955e-001
      4.18949313e-002 7.52769113e-002 3.76875699e-002 2.26415232e-001
      2.89507955e-001 2.89507955e-001 2.89507955e-001 3.02588567e-002
      2.89507955e-001 3.13518420e-002 9.72307920e-002 3.78349125e-002
      2.89507955e-001 9.16187018e-002 4.06975485e-002 1.00653112e-001
      7.12831179e-003 1.02245949e-001 1.76606476e-002 5.65376207e-002
      2.32012626e-002 1.04161166e-001 2.43905038e-001 1.58290565e-001
      2.88516104e-001 3.79104866e-003 7.52833635e-002 1.27522089e-002
      7.29022324e-002 2.60352809e-002 2.24189296e-001 3.14156622e-001
      3.14156622e-001 3.14156622e-001 1.47063866e-001 3.14156622e-001
      4.30798996e-003 2.26691794e-002 1.03689823e-002 3.14156622e-001
      2.26516664e-001 3.14156622e-001 6.43865392e-002 1.69615299e-001
      3.14156622e-001 3.70824686e-003 9.25792439e-004 1.62199792e-003
      1.36142761e-001 2.55648971e-001 1.81247279e-001 1.56413585e-001
      1.73165016e-002 5.11518717e-002 5.61917201e-004 1.73821952e-002
      9.29826871e-003 2.04468876e-001 6.77014366e-002 3.77920307e-002
      7.13008316e-003 2.32554916e-002 5.51058203e-002 4.21437842e-004
      1.08711130e-003 2.19982304e-003 5.93669601e-002</_>
    <_>
      9.88465622e-002 2.77254973e-002 7.80723169e-002 3.16576147e-003
      2.75515504e-002 1.60441396e-003 9.76024894e-004 5.68975555e-003
      9.29404646e-002 2.93805301e-001 1.25326768e-001 1.76608190e-001
      5.02250995e-003 1.59684829e-002 2.39079003e-003 2.87201423e-002
      2.89731044e-002 2.45299861e-001 2.94073194e-001 1.93109274e-001
      2.95145422e-001 1.53354913e-001 2.95145422e-001 6.26330748e-002
      3.19680683e-002 3.30823436e-002 2.40069672e-001 2.95145422e-001
      2.95145422e-001 2.95145422e-001 8.39480683e-002 1.41170412e-001
      2.51233838e-002 8.00967813e-002 8.93510059e-002 2.95145422e-001
      2.35862434e-001 9.35381129e-002 1.14806369e-001 3.14707570e-002
      2.94331796e-002 8.50537035e-004 4.20876332e-002 2.73188688e-002
      1.90017715e-001 2.67314941e-001 2.26036564e-001 2.05259442e-001
      4.06161696e-002 3.02771162e-002 5.13171079e-003 1.74168944e-002
      9.74888913e-003 2.67314941e-001 2.67314941e-001 1.66444063e-001
      1.70923427e-001 6.13626875e-002 2.67314941e-001 2.13380828e-002
      1.20577976e-001 5.86708970e-002 2.67314941e-001 2.67314941e-001
      2.27685213e-001 2.67314941e-001 7.57436231e-002 2.67314941e-001
      2.29031574e-002 4.89375219e-002 1.83823016e-002 2.67314941e-001
      2.87227452e-001 2.37937942e-001 1.91757247e-001 2.81632971e-002
      1.16171502e-001 6.87949508e-002 2.55312566e-002 1.07950729e-003
      2.87227452e-001 1.47054568e-001 8.52295160e-002 7.56053254e-002
      3.92077379e-002 2.67076015e-001 1.15216963e-001 6.14635013e-002
      9.77029908e-004 1.50229514e-001 2.84923851e-001 1.99254885e-001
      2.34164715e-001 1.03992067e-001 2.87227452e-001 1.65190116e-001
      1.05690267e-002 1.67626597e-003 2.65938103e-001 8.97016898e-002
      8.08014572e-002 6.78941309e-002 1.57065451e-001 2.87227452e-001
      2.63479620e-001 2.46037319e-002 3.95283481e-004 9.18601975e-002
      1.02156781e-001 1.41169891e-001 3.11427087e-001 2.41150856e-001
      3.21503848e-001 1.03905380e-001 6.73642457e-002 2.31030453e-002
      6.95826188e-002 3.21503848e-001 2.06451997e-001 2.66882896e-001
      1.00442052e-001 3.21503848e-001 4.44779955e-002 5.05334586e-002
      3.47982980e-002 1.97389811e-001 2.27683093e-002 5.37594296e-002
      1.38083473e-001 1.94424748e-001 3.21503848e-001 1.55472934e-001
      8.53886753e-002 2.26861183e-002 2.05891225e-002 1.22052506e-002
      2.80614812e-002 5.68834729e-002 6.31854534e-002 3.21503848e-001
      5.49507737e-002 3.15268487e-002 1.04619963e-002 1.18332794e-002
      1.69847593e-001 5.23838736e-002 4.15682122e-002 2.84385327e-002
      4.30371761e-001 2.65097097e-002 6.35102540e-002 1.95564926e-002
      1.27943248e-001 7.03293830e-002 4.35323678e-002 8.12576264e-002
      3.34252864e-002 4.30371761e-001 2.29728222e-002 2.63069794e-002
      6.02813624e-003 8.17559808e-002 2.72100847e-002 3.68137937e-003
      3.55061842e-003 2.94286422e-002 4.30371761e-001 2.70734895e-002
      9.61203128e-002 2.03331765e-002 3.33152823e-002 2.90405393e-001
      1.26419082e-001 1.43117579e-002 3.93425524e-002 4.30371761e-001
      2.47647129e-002 1.47162601e-001 4.09397669e-002 1.93800926e-001
      4.45500501e-002 2.73611005e-002 4.54342701e-002 8.01147819e-002
      4.06822979e-001 7.33948573e-002 9.24891792e-003 5.92406280e-003
      4.66322936e-002 9.88938846e-003 9.92059801e-003 7.88679160e-003
      1.12954594e-001 4.06822979e-001 1.21952802e-001 1.14656538e-002
      6.17366331e-003 1.02875251e-002 2.78160125e-001 1.81322083e-001
      6.67560399e-002 1.10609114e-001 4.06822979e-001 1.69690717e-002
      1.21890008e-001 1.41426951e-001 1.95288539e-001 9.04431418e-002
      6.34419098e-002 7.72375688e-002 1.58016548e-001 4.06822979e-001
      2.01979484e-002 1.27603009e-001 1.34605214e-001 9.31599513e-002
      1.46881729e-001 1.89519256e-001 2.22313702e-001 1.87179774e-001
      4.19879019e-001 1.79168507e-001 1.45704955e-001 1.93540547e-002
      1.35134459e-001 4.83695380e-002 7.78221041e-002 5.88456392e-002
      6.97367117e-002 4.19879019e-001 5.10678776e-002 1.15294583e-001
      3.91563587e-002 4.37418707e-002 1.83674395e-001 8.05605575e-002
      9.84092876e-002 5.42766452e-002 4.19879019e-001 7.52652287e-002
      1.41006008e-001 7.81522878e-003 1.63022459e-001 6.95219785e-002
      3.34295444e-002 2.60624308e-002 2.14200485e-002 3.06826115e-001
      1.77178364e-002 7.90624619e-002 2.22344864e-002 5.99231832e-002
      9.95247141e-002 2.03997027e-002 4.31973347e-003 2.23076381e-002
      3.05247217e-001 2.29835939e-002 3.00031036e-001 1.18568137e-001
      9.78563651e-002 3.05247217e-001 3.05247217e-001 5.03300652e-002
      2.72581801e-002 3.05247217e-001 2.01836172e-002 3.05247217e-001
      1.51664555e-001 3.05247217e-001 8.11233595e-002 1.90086365e-002
      4.45708027e-003 3.85943963e-003 7.61277154e-002 3.31729464e-003
      1.58003658e-001 9.88038182e-002 7.18311667e-002 3.05247217e-001
      1.92570105e-001 3.76350097e-002 2.81584053e-003 3.81229594e-002
      3.02583631e-003 1.50375322e-001 1.13188185e-001 2.54851639e-001
      2.83398688e-001 2.83398688e-001 2.05788761e-001 1.11516669e-001
      2.11615935e-001 5.86880697e-003 1.67402029e-001 2.22133338e-001
      2.83398688e-001 2.31951430e-001 1.38459474e-001 2.06338733e-001
      1.70074731e-001 2.83398688e-001 7.02022342e-003 1.60937369e-001
      1.98111594e-001 2.44228423e-001 2.83398688e-001 1.96887895e-001
      1.03613585e-001 2.12382413e-002 1.78975966e-002 3.12110619e-003
      2.55712457e-002 3.50829475e-002 2.54261255e-001 9.94400680e-002
      4.21453230e-002 7.47733116e-002 3.66697982e-002 4.17431928e-002
      3.66551033e-003 1.62815228e-002 2.07506046e-002 1.06957823e-001</_>
    <_>
      6.69804215e-002 4.74081747e-002 6.44253120e-002 9.46948677e-003
      1.13367140e-002 2.77833460e-004 1.83259501e-004 1.58507992e-005
      3.33264470e-002 2.75015563e-001 2.11834222e-001 1.38486475e-001
      1.12073440e-002 2.48622671e-002 6.20260602e-004 1.24745034e-002
      3.06473263e-002 1.81054145e-001 2.59491920e-001 2.93871492e-001
      3.04263711e-001 5.82017303e-002 2.53028214e-001 5.46259573e-003
      3.48489955e-002 8.16178322e-002 1.32922694e-001 3.04263711e-001
      3.04263711e-001 3.04263711e-001 4.07317169e-002 2.48219579e-001
      4.03356403e-002 8.55464563e-002 1.69293582e-001 3.04263711e-001
      2.16186613e-001 1.20533764e-001 9.58659947e-002 3.51547301e-002
      4.47223224e-002 3.59404366e-004 4.31896336e-002 5.41877449e-002
      1.44420892e-001 2.55951613e-001 2.40169317e-001 1.78530559e-001
      3.62100191e-002 3.45306508e-002 6.32378180e-003 4.08515483e-002
      2.63998061e-002 2.55951613e-001 2.55951613e-001 2.13070646e-001
      1.32262111e-001 7.42198676e-002 2.55951613e-001 8.91192406e-002
      1.70157671e-001 1.72417223e-001 2.35380068e-001 2.55951613e-001
      2.19966158e-001 2.53151268e-001 7.46014565e-002 2.55951613e-001
      7.67827630e-002 1.55077398e-001 8.14868659e-002 2.55951613e-001
      3.24817747e-001 2.46796414e-001 1.07886299e-001 6.93315547e-003
      1.11724123e-001 8.89564008e-002 8.86192620e-002 1.86559428e-002
      3.24817747e-001 1.33782089e-001 5.99266253e-002 1.28301047e-002
      4.49685473e-003 2.45576397e-001 1.72003344e-001 1.40110463e-001
      2.41951477e-002 1.42711207e-001 3.24817747e-001 1.96195230e-001
      1.40633881e-001 1.73623264e-002 3.24817747e-001 1.25881121e-001
      7.38108009e-002 7.96166714e-003 2.80286044e-001 8.51419196e-002
      4.39843200e-002 4.35569603e-003 1.46557903e-002 3.24817747e-001
      1.81843907e-001 9.08583924e-002 9.67805833e-003 8.09696987e-002
      1.43721715e-001 1.58325970e-001 2.57602304e-001 3.24687436e-002
      3.76297414e-001 1.06978705e-002 2.52879132e-002 5.85252345e-002
      8.21811706e-002 3.33330333e-001 2.86437780e-001 2.41296232e-001
      2.35920567e-002 3.76297414e-001 3.51760536e-002 4.95355278e-002
      9.02037621e-002 1.89824298e-001 1.52723398e-002 3.36104748e-003
      1.57549549e-002 2.49566957e-002 3.76297414e-001 1.95420906e-002
      1.20319962e-003 9.07997892e-004 1.06790299e-002 1.53966788e-002
      2.25957646e-003 1.18858749e-002 2.27424148e-002 3.76297414e-001
      4.03563119e-002 4.03548814e-002 5.50422771e-003 1.31639717e-002
      1.58595353e-001 7.15115294e-002 2.94011217e-002 3.13922614e-002
      4.24017280e-001 8.16190690e-002 8.68176371e-002 7.81186670e-002
      7.88121969e-002 1.03991620e-001 3.10187917e-002 5.11522293e-002
      3.27918418e-002 4.24017280e-001 6.18997440e-002 7.45245442e-002
      3.36034074e-002 6.26501292e-002 2.11571064e-002 9.76900849e-003
      3.56231653e-003 1.41978152e-002 4.24017280e-001 1.06629558e-001
      1.00754723e-001 1.49703426e-002 3.89793031e-002 2.51193434e-001
      1.85885534e-001 2.66235527e-002 2.54178364e-002 4.24017280e-001
      1.32927984e-001 6.10097870e-002 1.61128491e-002 2.08288908e-001
      5.98895326e-002 2.26286463e-002 3.09075490e-002 2.30942797e-002
      4.26241130e-001 3.40491273e-002 1.23246843e-002 4.33548383e-004
      4.53958027e-002 1.19404420e-002 4.06557927e-003 2.29063653e-003
      2.17055976e-002 4.26241130e-001 3.82276475e-002 3.42536019e-003 0.
      1.00542549e-002 2.54714549e-001 2.78144777e-001 9.37964022e-002
      1.17522322e-001 4.26241130e-001 2.87934504e-002 1.45951677e-002
      2.57776920e-002 1.66448697e-001 6.05265833e-002 1.15268342e-001
      1.37874901e-001 1.58013567e-001 4.26241130e-001 9.81738325e-003
      1.74964014e-002 2.25104354e-002 4.17705849e-002 9.84521732e-002
      1.85431167e-003 2.00766209e-003 6.82971254e-002 4.76140887e-001
      3.42421308e-002 1.51659932e-003 1.66342570e-003 9.81180072e-002
      4.29783389e-002 2.27584480e-003 2.29458837e-003 5.22338562e-002
      4.76140887e-001 1.05015390e-001 1.76056251e-001 3.04423235e-002
      4.39274460e-002 1.96675032e-001 1.03357446e-003 8.38664710e-004
      4.53113392e-002 4.76140887e-001 1.40813068e-002 6.98505435e-004
      2.32153153e-003 1.93659887e-001 8.24267343e-002 2.29980075e-003
      1.34366308e-003 3.16879153e-002 3.74881983e-001 3.29488367e-002
      7.42332414e-002 2.55410317e-002 8.02707672e-002 8.34185779e-002
      2.83680316e-002 6.65331818e-003 8.36148858e-003 2.89167345e-001
      2.00571984e-001 2.89167345e-001 9.69100744e-002 1.23316981e-001
      2.89167345e-001 2.89167345e-001 5.56446426e-002 1.33737568e-002
      2.89167345e-001 2.08604425e-001 2.16781989e-001 1.02272958e-001
      2.89167345e-001 8.31944793e-002 1.75445229e-002 1.37777324e-003
      2.23986642e-003 5.45996130e-002 6.43090978e-002 1.55432612e-001
      8.72655585e-002 9.90004241e-002 2.89167345e-001 2.59991378e-001
      2.04385016e-002 1.42214634e-003 3.83038148e-002 5.67663573e-002
      1.17432997e-001 9.37767848e-002 2.89167345e-001 2.89845318e-001
      2.89845318e-001 2.43263602e-001 1.32467240e-001 2.89845318e-001
      3.80541869e-002 2.18908302e-002 5.56636788e-002 2.89845318e-001
      1.79168403e-001 2.26239651e-001 2.89845318e-001 2.19094247e-001
      2.89845318e-001 3.87336593e-003 2.06814744e-002 3.97693850e-002
      1.38035715e-001 2.89845318e-001 2.89845318e-001 9.67957675e-002
      1.89720262e-002 2.10073218e-002 7.84960017e-003 5.00590960e-003
      1.75180063e-002 2.17965692e-001 9.30365995e-002 7.89171234e-002
      9.51634422e-002 3.81712392e-002 3.99982743e-002 1.21688288e-004
      5.94912672e-005 5.00357198e-003 7.62203410e-002</_>
    <_>
      7.37364516e-002 0. 0. 6.36273820e-004 6.75152466e-002 0. 0.
      7.26696802e-004 7.35202581e-002 2.92178076e-002 0. 0.
      4.77205293e-004 2.97392439e-002 0. 0. 9.68928856e-004
      2.92718764e-002 3.69776905e-001 3.98758071e-004 9.00120067e-005
      9.85359307e-003 4.15555060e-001 3.40167671e-001 2.89125532e-001
      1.81674201e-003 3.79087925e-001 1.46380067e-001 0. 0.
      6.88636210e-003 4.15555060e-001 2.47970775e-001 2.16844112e-001
      2.42232229e-003 1.50455832e-001 0. 0. 0. 0. 1.85372662e-002 0. 0.
      1.47843650e-002 3.06347921e-003 0. 0. 0. 0. 0. 0. 0. 0. 0.
      1.00769307e-002 0. 0. 2.14587916e-002 9.93376195e-001
      2.19158046e-002 0. 3.69609110e-002 1.77356284e-002 0. 0. 0. 0. 0.
      0. 0. 0. 0. 0. 0. 0. 0. 0. 0. 0. 0. 0. 0. 0. 0. 0. 0. 0. 0. 0. 0.
      0. 0. 0. 0. 0. 0. 0. 0. 0. 0. 0. 0. 0. 0. 0. 0. 0. 0.
      4.73680571e-002 4.80152725e-004 1.08385299e-004 7.12253526e-003
      4.73811150e-001 9.84072238e-002 8.29758719e-002 1.97316738e-004
      4.89707887e-002 1.89160462e-002 0. 0. 4.90026502e-003
      4.73811150e-001 7.23286569e-002 6.21335283e-002 2.74437538e-004
      1.97044853e-002 1.87239163e-002 3.13123427e-002 1.09392684e-002
      8.64917226e-003 4.73811150e-001 1.87202636e-002 1.86048746e-002
      3.10059767e-002 1.52047947e-002 1.81039587e-001 9.59781855e-002
      4.68761362e-002 7.01868348e-003 4.73811150e-001 1.34141212e-002
      2.09834911e-002 5.12400158e-002 1.23536497e-001 1.36119989e-003 0.
      0. 4.14540438e-004 6.18168451e-002 5.73389290e-004 0.
      1.06528503e-004 1.44899730e-003 3.41244638e-002 0. 0. 0.
      5.25762851e-004 0. 0. 0. 3.26289833e-002 3.75703365e-001
      1.30789310e-001 1.90097466e-001 3.26765664e-002 2.34152824e-001
      3.27615743e-003 8.64359960e-002 7.89726228e-002 3.57519567e-001
      3.75703365e-001 3.75703365e-001 3.75703365e-001 3.89633104e-002
      1.27080128e-001 4.24392638e-004 1.13778450e-001 5.60005233e-002
      3.75703365e-001 7.10139871e-002 0. 0. 0. 4.58070572e-005
      1.21999852e-004 5.96437239e-005 0. 6.92224056e-002 2.90717818e-002
      0. 0. 0. 0. 3.04999674e-004 1.49109313e-004 0. 2.86176484e-002
      3.48907739e-001 3.48907739e-001 3.48907739e-001 6.37205504e-003
      1.57253593e-001 1.73310071e-001 2.88367122e-001 8.25030282e-002
      3.48907739e-001 2.57998466e-001 1.91987440e-001 1.58484474e-001
      2.41387705e-003 2.37077594e-001 2.31934041e-001 2.29210660e-001
      6.02199621e-002 2.42057577e-001 1.03252456e-001 1.28513053e-001
      5.09216152e-002 5.47933718e-003 3.05660844e-001 3.18282321e-002
      1.17124379e-001 1.01244569e-001 8.18064138e-002 3.05660844e-001
      3.05660844e-001 1.43013149e-001 4.48693708e-003 3.05660844e-001
      1.36685725e-002 6.92787394e-002 1.25323445e-001 2.72484481e-001
      1.65969431e-001 1.47073567e-001 6.20407350e-002 2.00690795e-003
      2.03988552e-001 5.28863259e-002 1.62374869e-001 1.01625539e-001
      1.45082816e-001 3.05660844e-001 3.05660844e-001 1.19435787e-001
      1.29067176e-003 7.11372495e-002 2.12619808e-002 7.41721392e-002
      8.98572206e-002 2.66369164e-001 2.75318027e-001 2.75318027e-001
      1.90632209e-001 2.88397241e-002 1.06022425e-001 9.30912385e-004
      1.03713229e-001 8.56476054e-002 2.69866884e-001 2.75318027e-001
      2.75318027e-001 2.75318027e-001 3.70442569e-002 8.74843970e-002
      1.45296624e-004 1.02343969e-001 5.63697107e-002 2.75318027e-001
      2.75318027e-001 2.75318027e-001 1.10009074e-001 1.18068457e-002
